element,0,1,2,3,4,5,6,7,8,9,10,11,12,13,14,15,16,17,18,19,20,21,22,23,24,25,26,27,28,29,30,31,32,33,34,35,36,37,38,39,40,41,42,43,44,45,46,47,48,49,50,51,52,53,54,55,56,57,58,59,60,61,62,63,64,65,66,67,68,69,70,71,72,73,74,75,76,77,78,79,80,81,82,83,84,85,86,87,88,89,90,91,92,93,94,95,96,97,98,99,100,101,102,103,104,105,106,107,108,109,110,111,112,113,114,115,116,117,118,119,120,121,122,123,124,125,126,127,128,129,130,131,132,133,134,135,136,137,138,139,140,141,142,143,144,145,146,147,148,149,150,151,152,153,154,155,156,157,158,159,160,161,162,163,164,165,166,167,168,169,170,171,172,173,174,175,176,177,178,179,180,181,182,183,184,185,186,187,188,189,190,191,192,193,194,195,196,197,198,199,200,201,202,203,204,205,206,207,208,209,210,211,212,213,214,215,216,217,218,219,220,221,222,223,224,225,226,227,228,229,230,231,232,233,234,235,236,237,238,239,240,241,242,243,244,245,246,247,248,249,250,251,252,253,254,255,256,257,258,259,260,261,262,263,264,265,266,267,268,269,270,271,272,273,274,275,276,277,278,279,280,281,282,283,284,285,286,287,288,289,290,291,292,293,294,295,296,297,298,299,300,301,302,303,304,305,306,307,308,309,310,311,312,313,314,315,316,317,318,319,320,321,322,323,324,325,326,327,328,329,330,331,332,333,334,335,336,337,338,339,340,341,342,343,344,345,346,347,348,349,350,351,352,353,354,355,356,357,358,359,360,361,362,363,364,365,366,367,368,369,370,371,372,373,374,375,376,377,378,379,380,381,382,383,384,385,386,387,388,389,390,391,392,393,394,395,396,397,398,399,400,401,402,403,404,405,406,407,408,409,410,411,412,413,414,415,416,417,418,419,420,421,422,423,424,425,426,427,428,429,430,431,432,433,434,435,436,437,438,439,440,441,442,443,444,445,446,447,448,449,450,451,452,453,454,455,456,457,458,459,460,461,462,463,464,465,466,467,468,469,470,471,472,473,474,475,476,477,478,479,480,481,482,483,484,485,486,487,488,489,490,491,492,493,494,495,496,497,498,499,500,501,502,503,504,505,506,507,508,509,510,511
H,0.07340042293071747,0.017152858898043633,-0.0893467515707016,-0.037510134279727936,-0.28071972727775574,-0.03472164645791054,0.17955811321735382,0.26392677426338196,0.0035210151690989733,-0.567765474319458,0.21786220371723175,-0.12281085550785065,-0.20160724222660065,0.04561378434300423,-0.2073124349117279,0.11415478587150574,-0.2597735524177551,-0.05956600606441498,-0.07090751081705093,0.04654296860098839,-0.013955086469650269,-0.22542749345302582,-0.13318490982055664,0.06146002933382988,0.09365423768758774,0.1631053388118744,-0.08469667285680771,0.011969211511313915,-0.05704662203788757,0.04725027456879616,-0.19426549971103668,0.17150987684726715,-0.014549236744642258,-0.008131183683872223,0.005572386085987091,-0.053222209215164185,-0.026332847774028778,0.03514708951115608,-0.0006157103343866765,-0.09903077781200409,0.10218852013349533,-0.02934335172176361,-0.17139625549316406,0.05256309732794762,0.05133325234055519,-0.008130572736263275,-0.004572652280330658,0.10256950557231903,-0.11417685449123383,-0.1871788203716278,0.1846122443675995,0.32769477367401123,-0.4387168884277344,0.18854165077209473,0.07253103703260422,-0.07260536402463913,0.3761563301086426,-0.19648507237434387,0.042027298361063004,-0.07475719600915909,0.01952255517244339,0.0781271681189537,-0.13712918758392334,0.09050128608942032,-0.06924667954444885,-0.26662009954452515,-0.09948388487100601,0.0358654260635376,0.16751249134540558,-0.23154309391975403,-0.21332228183746338,-0.06076419726014137,-0.06271183490753174,0.05800846591591835,-0.08878915756940842,0.08895827829837799,0.030291587114334106,-0.03367054834961891,-0.10958641767501831,0.07725664973258972,-0.05850943177938461,0.06257042288780212,-0.18045109510421753,0.13760244846343994,-0.17259272933006287,-0.03273843601346016,-0.10168104618787766,0.07156378775835037,-0.19400298595428467,-0.22555014491081238,0.15172870457172394,-0.10107304155826569,0.004034881480038166,0.02500326931476593,-0.0853082537651062,0.061436500400304794,0.10919708758592606,-0.014232330024242401,0.005335452500730753,0.0935111939907074,-0.019738418981432915,-0.1578662097454071,0.0044693066738545895,0.09874355047941208,-0.06021575629711151,0.0006806915043853223,-0.01869693025946617,0.04028434678912163,-0.371110737323761,0.12007966637611389,-0.03011535108089447,0.15351004898548126,0.03894194960594177,-0.306612104177475,0.08382948487997055,0.03441179171204567,-0.05285365879535675,-0.12530498206615448,-0.02599566988646984,-0.017970867455005646,-0.11314075440168381,-0.04865783825516701,0.058552972972393036,-0.13294455409049988,-0.12451941519975662,-0.1161908209323883,0.12481728196144104,-0.09722483158111572,-0.009860653430223465,0.030760271474719048,0.16820630431175232,0.24921156466007233,0.1540852040052414,-0.22286364436149597,0.06590063124895096,0.2726626396179199,0.03923853486776352,0.20076949894428253,-0.03865441307425499,-0.25124600529670715,-0.1390160620212555,-0.044021185487508774,-0.09966956079006195,0.023835977539420128,-0.04557175561785698,0.03229592740535736,0.16512368619441986,0.1336982399225235,-0.27016159892082214,0.040541376918554306,0.13726744055747986,-0.033751435577869415,0.05316653102636337,0.014358896762132645,-0.10369675606489182,-0.0764692947268486,-0.2137286216020584,-0.2674658000469208,-0.11650916934013367,0.16357100009918213,0.036337729543447495,0.06959187984466553,0.08518152683973312,0.052535396069288254,-0.0997653380036354,0.39112791419029236,-0.19668100774288177,0.26627376675605774,0.07750708609819412,0.12473080307245255,-0.13112828135490417,-0.20563606917858124,-0.0749669224023819,-0.07931854575872421,-0.10465214401483536,0.060134004801511765,0.26168346405029297,-0.0778375044465065,0.17623640596866608,-0.055674050003290176,-0.0704914852976799,0.008461427874863148,-0.13320614397525787,0.07977104932069778,-0.21458899974822998,0.12757302820682526,-0.026269815862178802,-0.08236940950155258,0.038723621517419815,0.19883733987808228,-0.2303558588027954,-0.23762869834899902,0.11147512495517731,-0.07678088545799255,-0.0018809394678100944,0.22888891398906708,0.027839748188853264,0.02763933315873146,0.3249382972717285,0.234124094247818,0.21750256419181824,-0.2525588572025299,0.03699706867337227,0.23039422929286957,-0.19772055745124817,0.07057687640190125,0.08957094699144363,0.24862389266490936,0.021613821387290955,0.013459620997309685,-0.03986425697803497,-0.06738028675317764,-0.08067905157804489,0.11042297631502151,-0.03894906863570213,0.23645944893360138,-0.015565420500934124,0.2867283225059509,-0.04768027365207672,0.29596853256225586,0.17791315913200378,-0.19318009912967682,-0.14839638769626617,-0.09248244017362595,-0.06850779801607132,0.1056952178478241,-0.20715604722499847,0.2008121758699417,-0.26821717619895935,0.18870745599269867,0.012735693715512753,0.07111845165491104,-0.17355386912822723,-0.1500934660434723,0.17152871191501617,0.09501086175441742,-0.08278625458478928,-0.1716867834329605,-0.13837070763111115,-0.03550173342227936,0.10776203125715256,-0.12047088891267776,0.2143033891916275,0.121672622859478,0.07987648248672485,-0.12142504751682281,0.15643210709095,0.09191316366195679,-0.06692934781312943,-0.09571179747581482,-0.07538286596536636,0.11951007694005966,-0.1816015988588333,0.3133232295513153,-0.06625495105981827,-0.01705695129930973,-0.06469930708408356,0.14418773353099823,0.05270913243293762,-0.13189056515693665,-0.07001730054616928,0.11951950192451477,-0.046565938740968704,-0.1682669222354889,0.0731557160615921,0.14137284457683563,0.08138608187437057,-0.11426069587469101,0.181194469332695,0.10993583500385284,0.059379469603300095,0.05389602854847908,-0.2428884208202362,-0.29793915152549744,0.06820648163557053,-0.10298027843236923,0.02437577396631241,-0.1593731939792633,-0.1333838254213333,0.28190553188323975,-0.1478964388370514,0.1504499912261963,-0.02161169983446598,0.09681247174739838,0.09148535877466202,-0.32248392701148987,0.011802930384874344,0.13909661769866943,-0.10052230954170227,-0.07907184213399887,-0.044529449194669724,-0.09193757176399231,0.2031736522912979,0.1515854299068451,-0.022708844393491745,0.08102855086326599,-0.31861141324043274,-0.08326633274555206,0.04576696455478668,-0.2346007376909256,-0.16441753506660461,-0.09078189730644226,0.22974976897239685,-0.18649187684059143,-0.17876042425632477,0.1460980921983719,-0.03830767795443535,-0.07962065935134888,0.14910583198070526,-0.08901942521333694,-0.1071888655424118,0.013929951936006546,0.05051422491669655,-0.12868139147758484,-0.15887627005577087,-0.14916861057281494,0.016333233565092087,0.19380895793437958,0.064067043364048,-0.07174480706453323,-0.09619037061929703,-0.04504444822669029,0.10294187068939209,-0.1673666536808014,-0.03633460775017738,0.1371937394142151,-0.12234469503164291,0.0916459932923317,0.19521044194698334,-0.0712842345237732,0.21920675039291382,-0.2241036593914032,-0.1512203961610794,-0.15859472751617432,0.14795103669166565,-0.02460891753435135,0.1491279900074005,-0.05722179263830185,0.14101745188236237,0.024304036051034927,-0.016391798853874207,0.266763836145401,0.10731682926416397,0.047929245978593826,-0.20322255790233612,0.1689671277999878,-0.2101544588804245,-0.2117869108915329,0.02731066569685936,8.994059317046776e-05,-0.06626391410827637,-0.09463918954133987,0.07626030594110489,-0.4072664678096771,-0.10545863956212997,0.06804188340902328,-0.1359192579984665,-0.15874074399471283,0.10619232058525085,-0.09044759720563889,0.04960474371910095,0.18491241335868835,-0.3066081404685974,0.0011346114333719015,-0.06657832860946655,-0.19987735152244568,0.13721053302288055,0.19658392667770386,0.006212044972926378,-0.20324628055095673,0.01460595428943634,-0.09098770469427109,0.0462852381169796,-0.0069857328198850155,-0.11701754480600357,-0.10933123528957367,0.10740939527750015,0.0375928096473217,0.1615573614835739,-0.02996247261762619,0.03406040742993355,0.05811145156621933,-0.130761057138443,0.17631039023399353,0.058941323310136795,0.16533179581165314,0.006087541580200195,0.107847198843956,0.11573034524917603,-0.1218973770737648,-0.35796403884887695,-0.07614224404096603,0.03605198115110397,0.04515192657709122,0.015085337683558464,-0.28954800963401794,0.2076508104801178,-0.13058072328567505,0.13397851586341858,-1.4392403500096407e-05,0.2000732272863388,-0.016905566677451134,0.169777050614357,-0.32761719822883606,0.04635775089263916,0.02424759790301323,0.12855491042137146,0.3718278408050537,-0.0031120176427066326,-0.03056982345879078,-0.060544151812791824,-0.01750999502837658,0.03512357547879219,0.027815844863653183,0.10680533945560455,0.15998460352420807,-0.0162130706012249,-0.09375014156103134,0.347175270318985,-0.06831486523151398,-0.008459587581455708,0.1424832046031952,-0.1672075241804123,-0.24108295142650604,-0.03562195226550102,-0.01895073615014553,-0.15191595256328583,0.062194451689720154,-0.29392245411872864,-0.038157470524311066,-0.08185578137636185,-0.4030214846134186,-0.24137432873249054,-0.23528586328029633,-0.24915440380573273,0.08814273774623871,-0.035293735563755035,-0.38311031460762024,0.06123529002070427,-0.043575651943683624,0.15138907730579376,-0.0742742046713829,-0.19553188979625702,0.004816289525479078,-0.33917322754859924,0.15619976818561554,0.024247337132692337,0.1823296695947647,-0.05222427099943161,-0.10048873722553253,0.10640034824609756,0.06516160815954208,0.09329154342412949,0.2527599036693573,0.023822978138923645,0.20082755386829376,-0.18634739518165588,0.19322487711906433,-0.15252022445201874,-0.03862365707755089,0.049100980162620544,-0.16640882194042206,0.1301368921995163,0.06863647699356079,0.029668686911463737,-0.20130373537540436,0.0589914433658123,0.03527538850903511,0.329474538564682,-0.06170065328478813,-0.02206318825483322,0.13414712250232697,0.08941611647605896,0.07497606426477432,0.03663581237196922,-0.14342860877513885,-0.041624605655670166,0.03219875320792198,-0.033645227551460266,-0.03536192700266838,-0.07648105174303055,-0.12704171240329742,0.010740415193140507,-0.21577249467372894,-0.07535811513662338,0.008928678929805756,0.10456251353025436,0.2911970019340515,-0.05549929663538933,0.053194787353277206,-0.04440819472074509,-0.06554451584815979,-0.13826261460781097,0.05043337866663933,0.2035248577594757,-0.09928601235151291,0.042641907930374146,0.09216482937335968,-0.023902516812086105,-0.07947653532028198,-0.0714307427406311,-0.14495837688446045,0.027995068579912186,0.1746254712343216,0.08280621469020844,-0.07625802606344223,0.03263294696807861,-0.24703727662563324,-0.08366728574037552,-0.11613503843545914,0.005385647062212229,0.17526775598526
He,-0.15032073855400085,-0.11854887753725052,-0.051360320299863815,-0.11398676037788391,-0.17289240658283234,-0.25669875741004944,0.1004393994808197,0.19982805848121643,0.3122560381889343,-0.29707223176956177,-0.06805312633514404,-0.11846830695867538,0.16386424005031586,-0.06634939461946487,-0.1851661205291748,0.06064022332429886,-0.08206398785114288,0.04456605762243271,0.07003508508205414,0.08585769683122635,0.2230164259672165,0.08508282899856567,0.11318251490592957,-0.17430834472179413,-0.18868963420391083,0.058745238929986954,0.03368142992258072,0.22652080655097961,0.2174566239118576,0.2287624478340149,0.21881327033042908,-0.04441650211811066,-0.34199073910713196,0.1719353049993515,-0.26686885952949524,-0.029729574918746948,0.23122164607048035,-0.002724738558754325,0.26772668957710266,-0.02177056111395359,-0.0666637122631073,0.1500389575958252,-0.02345106191933155,0.2803787291049957,0.1768869161605835,0.023827198892831802,-0.16709016263484955,0.09029397368431091,-0.01404672209173441,-0.05645724758505821,-0.21256135404109955,-0.1859845072031021,-0.22836817800998688,0.02490026131272316,0.3474874496459961,-0.25647667050361633,0.22771045565605164,-0.1793307214975357,-0.28693875670433044,-0.1418972909450531,-0.10996125638484955,-0.18198096752166748,0.3505465090274811,-0.19552339613437653,0.20711848139762878,-0.23009362816810608,-0.053181879222393036,-0.12851889431476593,0.4310784637928009,-0.3537689745426178,0.23126228153705597,0.2544505000114441,0.023692823946475983,-0.049616605043411255,0.18774385750293732,0.4605690538883209,0.2202349603176117,0.2463354468345642,0.2445029765367508,0.11790290474891663,-0.6345669627189636,-0.21064788103103638,-0.27640530467033386,-0.20567356050014496,0.18009299039840698,-0.022285178303718567,0.008488877676427364,0.06107131019234657,0.043783243745565414,0.020649777725338936,0.23686331510543823,-0.04751095175743103,-0.30760759115219116,-0.16952157020568848,-0.060751620680093765,0.05226627364754677,0.24295297265052795,-0.030232705175876617,0.2070842981338501,-0.016294706612825394,-0.2074769288301468,-0.09388305991888046,0.45358824729919434,-0.15541574358940125,0.2342080920934677,-0.0964391902089119,-0.182464599609375,-0.155582457780838,-0.32639986276626587,-0.06693114340305328,-0.08309060335159302,0.19051258265972137,0.13914167881011963,-0.3107312321662903,-0.1149633526802063,-0.19915936887264252,-0.41374722123146057,-0.1120365560054779,-0.27451369166374207,-0.05375014990568161,-0.01140555553138256,-0.5284317135810852,0.025337690487504005,-0.23937341570854187,-0.04391484335064888,0.29573094844818115,0.06997193396091461,0.004176441114395857,0.04597974568605423,0.07033561170101166,-0.0508696585893631,0.128544881939888,-0.07638929784297943,-0.16220036149024963,0.03265552967786789,0.1578962206840515,0.26486238837242126,0.18684202432632446,-0.2312111109495163,-0.27188199758529663,0.023372765630483627,-0.12929603457450867,-0.25209420919418335,0.018044229596853256,-0.17067617177963257,-0.32850754261016846,-0.41214483976364136,0.07929456979036331,-0.16359257698059082,0.13610079884529114,-0.23290961980819702,-0.4634503424167633,-0.24030692875385284,-0.3027035892009735,0.12692245841026306,-0.1534636914730072,-0.024697717279195786,-0.16457977890968323,-0.028946297243237495,0.14290177822113037,-0.07519911229610443,0.22792787849903107,0.09616544097661972,-0.24510525166988373,0.114657923579216,0.22605197131633759,0.282835453748703,0.44705966114997864,-0.23761408030986786,0.06767308712005615,0.016131065785884857,0.02855484001338482,-0.216147318482399,-0.052849024534225464,0.014956207945942879,-0.27344924211502075,-0.06280972063541412,0.034696049988269806,-0.1794774979352951,-0.21631509065628052,-0.01245717704296112,0.06361508369445801,0.07053481042385101,0.029017213732004166,0.0010640587424859405,0.12554533779621124,-0.23452547192573547,0.18584376573562622,0.061993520706892014,0.32746872305870056,0.013010526075959206,-0.22396811842918396,0.18087667226791382,-0.012913739308714867,0.23912717401981354,0.13155438005924225,0.11542947590351105,0.04094993695616722,0.046517420560121536,0.3859277069568634,0.06482905149459839,-0.1956455409526825,-0.011808156967163086,-0.006479672156274319,-0.12283012270927429,-0.06777846813201904,-0.248592808842659,0.3649132549762726,-0.30809852480888367,0.050049424171447754,0.1892527937889099,0.13153766095638275,-0.10064074397087097,0.12169075012207031,0.37411314249038696,-0.030598320066928864,0.046081140637397766,0.21347129344940186,0.06648896634578705,0.031074807047843933,-0.08732427656650543,-0.09653955698013306,-0.32148346304893494,0.08392046391963959,-0.26791372895240784,0.09443998336791992,-0.019287649542093277,0.38459813594818115,0.02086930349469185,0.23577097058296204,0.34731781482696533,0.005077135283499956,-0.1953703612089157,-0.08762232214212418,0.09137657284736633,-0.09842181205749512,0.36470142006874084,0.3034419119358063,0.08313316851854324,0.16933678090572357,0.07989923655986786,-0.027521297335624695,-0.13581018149852753,-0.3315376043319702,-0.3518715798854828,-0.28612586855888367,0.1755271852016449,0.3031451106071472,-0.14585521817207336,0.02407865785062313,-0.11161115020513535,-0.1290009319782257,-0.13863371312618256,0.2559815049171448,-0.3472118079662323,0.2518434524536133,0.09771132469177246,-0.09982877224683762,0.27779701352119446,-0.10441658645868301,0.02509385347366333,0.26808983087539673,0.16126182675361633,-0.43447595834732056,0.30607202649116516,0.0959085077047348,-0.11991574615240097,0.20752200484275818,-0.06740891188383102,0.5463962554931641,-0.006367684807628393,-0.21126112341880798,-0.027721520513296127,0.11009811609983444,-0.14304491877555847,-0.07960918545722961,-0.26561179757118225,0.11362279206514359,-0.39534810185432434,0.07274499535560608,0.08117630332708359,0.09242948144674301,0.0737980380654335,0.277171790599823,0.06992126256227493,0.21787013113498688,0.20485778152942657,0.08654007315635681,0.12947729229927063,-0.0792371854186058,0.12469693273305893,0.23279988765716553,-0.14315083622932434,-0.07279305160045624,0.03227944299578667,0.39992159605026245,-0.14515753090381622,-0.11328431218862534,0.3270929455757141,-0.3367634117603302,0.27348828315734863,0.22565096616744995,0.04538814350962639,0.044593095779418945,-0.1998140960931778,0.20921342074871063,0.1166047751903534,-0.1649426370859146,-0.038846321403980255,0.10306233167648315,-0.060100652277469635,0.2826767563819885,-0.08691192418336868,-0.08995062857866287,-0.17554648220539093,0.04257221892476082,-0.2244275063276291,-0.06357201933860779,0.6409855484962463,-0.33170050382614136,0.14367423951625824,0.26332733035087585,-0.005203988403081894,-0.5281402468681335,-0.2530181109905243,-0.5562647581100464,-0.10633554309606552,-0.2918253242969513,-0.012975175864994526,-0.25089031457901,-0.11078439652919769,-0.26260942220687866,-0.19214989244937897,-0.21042393147945404,0.08969451487064362,0.1379227191209793,0.10820681601762772,0.259537935256958,-0.12369105219841003,-0.1124887466430664,-0.047602199018001556,-0.23228059709072113,-0.10268539190292358,0.20994319021701813,-0.01919429749250412,0.06609749794006348,-0.5374438762664795,-0.3680587708950043,-0.2679387927055359,0.02159619703888893,-0.023252399638295174,-0.2339460700750351,0.01265256293118,-0.023271851241588593,-0.29480916261672974,-0.21703386306762695,-0.3123013377189636,-0.0782378613948822,0.04431581869721413,-0.10200640559196472,0.0016681901179254055,0.3444584310054779,-0.25576600432395935,0.25864654779434204,-0.11148027330636978,-0.06849420070648193,-0.10697326064109802,-0.05793051794171333,-0.15376904606819153,0.03876343369483948,-0.02936723455786705,-0.14269155263900757,-0.1185164824128151,-0.38064032793045044,0.1944093108177185,-0.05949927121400833,0.11995948851108551,-0.023565063253045082,0.3372787833213806,-0.0258841123431921,0.056288670748472214,0.0489814318716526,0.07227782160043716,0.2554016709327698,-0.12827320396900177,0.035981595516204834,-0.6491256952285767,-0.2421175092458725,0.00033889361657202244,-0.015236197039484978,-0.4928573966026306,0.3131162226200104,-0.18742454051971436,-0.2102903425693512,-0.16354314982891083,-0.354767382144928,0.23046305775642395,0.025116443634033203,-0.2484981268644333,-0.1240077093243599,0.26367729902267456,0.08168716728687286,0.010143496096134186,-0.12797744572162628,-0.06310392171144485,-0.04863470420241356,0.19819903373718262,0.2184373289346695,0.15364854037761688,-0.2157221883535385,-0.2289629429578781,-0.058427464216947556,0.1749321073293686,0.0172091294080019,-0.15919305384159088,-0.18299925327301025,-0.3246185779571533,0.20277012884616852,0.2847521901130676,-0.036987144500017166,0.07200043648481369,0.028269346803426743,-0.17880259454250336,0.01661185547709465,0.08124147355556488,0.16781114041805267,-0.41724225878715515,0.14819161593914032,-0.22214747965335846,0.06271021068096161,0.2377932071685791,-0.29013314843177795,0.07307267189025879,-0.4818878769874573,0.17470620572566986,0.041511982679367065,0.323763370513916,-0.22057534754276276,0.14459411799907684,-0.4637244939804077,0.1739785522222519,-0.395914226770401,0.3837410807609558,0.3917046785354614,0.03104306198656559,0.2520989775657654,-0.034674786031246185,0.1711379736661911,0.18779870867729187,-0.1208779439330101,0.10459214448928833,-0.09888462722301483,0.08063100278377533,0.24552316963672638,-0.1383323222398758,0.055773090571165085,-0.427132785320282,0.09005287289619446,-0.12892559170722961,-0.005259007681161165,0.1992853581905365,0.06172264367341995,0.030352696776390076,0.23682275414466858,-0.2759975790977478,0.06187954545021057,-0.39979082345962524,0.14013946056365967,0.0004466248210519552,-0.04598522558808327,-0.1615833342075348,0.4861012399196625,-0.1929910033941269,-0.1316697597503662,-0.19389845430850983,-0.27092480659484863,0.035880520939826965,-0.0940442681312561,0.014935343526303768,-0.12493515014648438,0.24168601632118225,-0.2531224191188812,-0.1533183455467224,-0.0866212248802185,0.024615980684757233,-0.19373838603496552,-0.013935314491391182,-0.21671538054943085,0.030428754165768623,-0.12920430302619934,0.08222899585962296,0.048301197588443756,0.05731242522597313,-0.22749613225460052,0.1079551950097084,0.2797279357910156,0.09562620520591736,-0.0831793025135994,-0.0100335031747818,-0.16114306449890137,-0.057467568665742874,0.18889673054218292,-0.18663707375526428,0.11370539665222168,0.003628181992098689,0.029321540147066116,-0.057497285306453705,-0.13471736013889313,-0.09448196738958359,0.06918391585350037,0.21843841671943665,-0.285326212644577
Li,-0.052578166127204895,-0.018000327050685883,-0.3507051467895508,0.09400955587625504,0.059472791850566864,0.0963289812207222,-0.004373130854219198,0.06823842227458954,0.0652945339679718,-0.06417461484670639,0.08235951513051987,0.051109399646520615,0.04806159436702728,0.008856578730046749,-0.13258078694343567,-0.10971762984991074,-0.3040121793746948,0.04818415269255638,-0.18379659950733185,-0.07334581017494202,-0.10920751839876175,-0.10401761531829834,0.04662138223648071,0.0833207443356514,-0.1894887536764145,-0.02347744069993496,-0.12528634071350098,-0.18421880900859833,0.3432765007019043,-0.07508789002895355,-0.11919357627630234,0.15243010222911835,-0.14773043990135193,0.15833532810211182,-0.2221737504005432,-0.028230471536517143,-0.00219801370985806,-0.05735533684492111,0.13365069031715393,0.19805744290351868,-0.04051753506064415,-0.041345175355672836,-0.036531541496515274,-0.0756043940782547,0.25941210985183716,0.1951882392168045,-0.0610860213637352,0.12297780811786652,-0.13535280525684357,-0.1356351673603058,0.12986603379249573,0.10651366412639618,-0.19741983711719513,0.16290108859539032,-0.042010724544525146,-0.19508111476898193,0.2696029841899872,0.14733369648456573,0.06850028038024902,0.2869596779346466,-0.04052852839231491,0.12414184212684631,0.06426777690649033,-0.310627281665802,0.18546044826507568,-0.2095869779586792,0.06591784954071045,0.12388505786657333,0.17638075351715088,-0.09148813784122467,0.03749849274754524,-0.2213503122329712,0.012266566976904869,0.19831110537052155,0.16466039419174194,0.07375651597976685,-0.16526781022548676,0.06168089807033539,-0.01459685992449522,-0.19621998071670532,-0.11482196301221848,-0.2291497141122818,-0.18005412817001343,0.024704433977603912,-0.213487908244133,0.04387003183364868,-0.15958864986896515,-0.14653821289539337,0.11948186904191971,0.2365497499704361,0.0775953084230423,-0.1922040581703186,-0.28810325264930725,-0.07334274053573608,-0.19996096193790436,-0.18229244649410248,0.07685774564743042,-0.20925751328468323,0.02413620427250862,0.06236895173788071,-0.24604389071464539,0.09367261826992035,0.2612837851047516,-0.03209247812628746,-0.04555702209472656,-0.29674988985061646,0.10156983137130737,0.307069331407547,-0.03984621539711952,-0.11045616120100021,-0.032929230481386185,-0.07789090275764465,0.07084469497203827,-0.017134206369519234,-0.04367366060614586,-0.04502963274717331,-0.02843412756919861,-0.19000637531280518,0.01663537696003914,-0.055688872933387756,-0.16628994047641754,-0.008574511855840683,-0.1329464316368103,-0.16389372944831848,0.0220098327845335,0.40029045939445496,-0.07264596968889236,0.23206007480621338,0.050410278141498566,0.08226189017295837,0.12134821712970734,0.1315726339817047,0.057660188525915146,0.1025504544377327,0.4315984845161438,0.10677637159824371,0.06315235048532486,0.24147537350654602,-0.10825998336076736,-0.04861360415816307,0.22146716713905334,0.013571995310485363,-0.11133459955453873,-0.11553084850311279,0.045533303171396255,0.12751489877700806,0.17994259297847748,0.054700639098882675,-0.23667651414871216,-0.1981356292963028,-0.15390779078006744,0.18157707154750824,-0.023136043921113014,0.18225130438804626,-0.18324358761310577,0.04715559631586075,-0.07539865374565125,-0.09432783722877502,-0.011182514950633049,-0.17539502680301666,-0.06550246477127075,0.3082204759120941,0.1044645830988884,0.057904381304979324,0.18756982684135437,0.3629363179206848,-0.12859685719013214,0.3111325204372406,-0.06763789057731628,-0.23730945587158203,0.16089078783988953,0.04687083885073662,-0.18288852274417877,-0.18839408457279205,0.1334441900253296,-0.25121626257896423,-0.15050382912158966,0.21235249936580658,-0.0869007483124733,-0.07839108258485794,-0.1631554663181305,0.06573899835348129,0.09744425863027573,0.19786180555820465,0.10473135858774185,0.24699556827545166,0.11968312412500381,0.3598034083843231,0.06389269977807999,0.07062317430973053,-0.22875627875328064,-0.08303267508745193,-0.06201741471886635,0.08277326077222824,0.2269842028617859,-0.19317957758903503,0.054078105837106705,-0.2636309862136841,-0.12069829553365707,0.2272869497537613,0.19609571993350983,-0.14240558445453644,-0.14329254627227783,-0.05859934911131859,0.06536415964365005,0.15004947781562805,-0.25288110971450806,0.06713148206472397,0.004972470458596945,-0.008699053898453712,-0.08019482344388962,0.21806016564369202,-0.033342719078063965,0.23697109520435333,0.13359546661376953,0.028165431693196297,0.12177187949419022,-0.08343557268381119,0.01161537878215313,0.06886246800422668,-0.054534826427698135,0.08280553668737411,-0.06669148057699203,0.03445843979716301,0.13658222556114197,-0.10681740194559097,-0.06369343400001526,0.11253556609153748,-0.004944976884871721,0.06624568998813629,0.0319906510412693,0.08648863434791565,0.011669689789414406,0.11410673707723618,-0.1849924474954605,0.02676229737699032,0.036283306777477264,-0.05460646376013756,-0.19568891823291779,-0.02279321476817131,0.17144031822681427,0.03717043623328209,-0.2972410023212433,0.1209784522652626,-0.19285078346729279,-0.06663612276315689,0.02153540588915348,0.20731906592845917,0.026468578726053238,0.04925772547721863,0.11190526187419891,-0.23194019496440887,0.05873905122280121,0.12259700149297714,0.01628507487475872,0.16830240190029144,0.030383985489606857,-0.26894474029541016,0.041930895298719406,-0.027676718309521675,-0.025527600198984146,-0.10652220994234085,0.11431863903999329,0.13211612403392792,-0.05062192678451538,0.09811326116323471,0.17572014033794403,0.03862087056040764,-0.017209481447935104,0.046088386327028275,0.057990189641714096,-0.21057051420211792,0.03201517462730408,0.04311275854706764,-0.42095738649368286,-0.009591315872967243,-0.18478122353553772,-0.03383922949433327,-0.0037430929951369762,0.20858260989189148,-0.0781664028763771,0.15858641266822815,0.20942002534866333,0.10348579287528992,-0.14039760828018188,0.022754976525902748,-0.25168102979660034,0.03322730213403702,0.3412778079509735,0.08568143099546432,-0.06416744738817215,0.2771894037723541,0.2083473950624466,0.03504030779004097,-0.12578770518302917,0.10203968733549118,-0.31996336579322815,-0.2284109741449356,-0.08304515480995178,0.0554509200155735,-0.15174920856952667,-0.11850561201572418,0.10845622420310974,-0.047623079270124435,0.184701070189476,0.2389356791973114,-0.33576804399490356,0.14331990480422974,0.0010546327102929354,0.08003745228052139,0.09968257695436478,0.158630833029747,0.00022897632152307779,-0.13659481704235077,0.033533159643411636,-0.023410629481077194,-0.09463873505592346,-0.1113773062825203,0.0599740706384182,0.12066139280796051,-0.08265279978513718,0.019068950787186623,-0.009711192920804024,0.06813090294599533,-0.10370029509067535,-0.18644528090953827,0.15222971141338348,-0.20916618406772614,0.03376658260822296,-0.07565373182296753,-0.08902576565742493,-0.11263515055179596,0.17668887972831726,-0.27712228894233704,0.16550801694393158,0.0018394424114376307,-0.05801498144865036,0.09401851892471313,0.23984946310520172,0.035059183835983276,0.21173109114170074,0.12546391785144806,-0.13460412621498108,-0.06699288636445999,-0.3013751804828644,0.03686053305864334,-0.25959131121635437,-0.2386680692434311,-0.0182289257645607,0.06137339398264885,0.1259494125843048,-0.024047372862696648,0.01593591645359993,-0.015585573390126228,-0.04456561803817749,0.13772423565387726,-0.12076126784086227,-0.12480012327432632,0.0538579598069191,0.1245494857430458,0.09782855212688446,0.022582078352570534,-0.17123033106327057,0.1155274510383606,0.08625880628824234,0.17291808128356934,-0.15200957655906677,0.09378107637166977,0.050753653049468994,-0.1840403974056244,0.0971292108297348,0.16704855859279633,-0.019931064918637276,0.3163052797317505,-0.25690940022468567,-0.15589742362499237,-0.3328162431716919,0.14908373355865479,-0.017947254702448845,0.18657484650611877,0.040392473340034485,0.08696266263723373,0.010583842173218727,-0.1329789012670517,0.05008041858673096,0.07139374315738678,-0.2774618864059448,-0.1773528754711151,-0.025702547281980515,-0.09273289144039154,-0.29111719131469727,0.04138295724987984,0.0002124874881701544,-0.024590685963630676,-0.2348732054233551,-0.24651123583316803,0.2181941121816635,-0.00845976173877716,0.23072828352451324,0.1325119584798813,-0.06386281549930573,0.18477781116962433,-0.076184943318367,-0.10569946467876434,0.15289591252803802,0.07120160758495331,-0.12044277042150497,0.26106956601142883,0.11955741792917252,-0.08603974431753159,0.10534035414457321,-0.18288956582546234,-0.09062974154949188,0.0683441162109375,0.2025195062160492,-0.11423539370298386,0.1617029905319214,0.11448706686496735,0.30195745825767517,0.2520526647567749,0.2534705698490143,0.04687090590596199,0.16374588012695312,-0.08534887433052063,-0.11261269450187683,-0.1601657122373581,-0.16554337739944458,-0.005674436222761869,-0.07807265967130661,-0.02360589988529682,0.0699981302022934,-0.14117416739463806,-0.0064387512393295765,-0.23147504031658173,0.11842130869626999,-0.14549152553081512,0.10281952470541,-0.3120066523551941,-0.018475597724318504,-0.23892086744308472,-0.04197622835636139,0.11556520313024521,0.27936452627182007,0.20200729370117188,-0.159989595413208,0.12805697321891785,-0.14103026688098907,0.12920501828193665,-0.045453332364559174,-0.10567900538444519,0.19736739993095398,0.19040259718894958,0.051622651517391205,0.35797518491744995,-0.11508086323738098,0.13423681259155273,-0.12461868673563004,0.2897507846355438,-0.0877506285905838,-0.07232887297868729,-0.17872819304466248,-0.07314899563789368,-0.009405731223523617,0.002043961314484477,0.08865033835172653,-0.10445401072502136,-0.15694862604141235,-0.06406007707118988,0.18698985874652863,-0.02126804180443287,0.09005597233772278,-0.15288062393665314,0.141845241189003,0.09674457460641861,0.11613402515649796,0.06525052338838577,-0.17334987223148346,0.0976046621799469,0.27275753021240234,-0.01134791411459446,-0.06584899872541428,0.11758759617805481,0.13367946445941925,0.14481693506240845,0.11393468827009201,0.10084209591150284,-0.06359511613845825,0.08419176191091537,0.10297667235136032,0.18969044089317322,0.13041344285011292,0.04655838385224342,0.07547374814748764,0.15750640630722046,0.1332414448261261,0.17903536558151245,0.0900598019361496,0.19162817299365997,-0.1429274082183838,-0.021050462499260902,0.024750635027885437,-0.027324702590703964,0.2455419898033142,0.03834174945950508,0.07794936746358871,-0.19935166835784912,-0.02892155945301056,-0.1415044218301773,-0.08705464005470276,0.3677433729171753,0.06050398200750351,-0.02199329249560833
Be,0.16918344795703888,-0.16684311628341675,0.03428073227405548,0.06406201422214508,-0.12671653926372528,0.0872357115149498,-0.05980416759848595,-0.008435945026576519,0.052652958780527115,-0.2367541790008545,0.08354830741882324,-0.042634014040231705,0.10464812070131302,0.07074268162250519,-0.14026212692260742,-0.2148495316505432,-0.11896342039108276,0.1847790777683258,-0.2845118045806885,0.20984283089637756,-0.06252067536115646,-0.072407066822052,0.11807535588741302,0.29428648948669434,0.10303556174039841,-0.20658311247825623,-0.1284477412700653,-0.17068438231945038,-0.0728883445262909,-0.03169909864664078,-0.14362438023090363,-0.15329806506633759,-0.10384351760149002,0.08403006941080093,-0.15027762949466705,0.11617349833250046,-0.05536862835288048,-0.04515344649553299,-0.017826242372393608,0.2033982276916504,-0.09077638387680054,0.011553707532584667,0.04166729375720024,-0.04033546894788742,-0.06364396214485168,-0.014938007108867168,-0.14415577054023743,0.1177123561501503,-0.1364680677652359,-0.06369397044181824,-0.16591480374336243,0.1382640302181244,-0.31224092841148376,0.12052061408758163,-0.0280618779361248,0.006459662690758705,0.3072323203086853,0.15897102653980255,0.21310515701770782,0.11556833982467651,-0.40110230445861816,-0.06391117721796036,0.1364802122116089,-0.18833670020103455,-0.051295164972543716,-0.09912165999412537,-0.031545087695121765,0.02908993698656559,0.09191335737705231,0.035877734422683716,-0.08859845995903015,0.015851641073822975,0.029360365122556686,0.05961024761199951,0.21196356415748596,0.20627033710479736,0.30663618445396423,0.04869859665632248,0.056990742683410645,0.08717796951532364,-0.1361287534236908,0.05157799646258354,0.12564101815223694,-0.029844090342521667,0.04794885963201523,0.06596259027719498,0.06532054394483566,-0.2588154673576355,-0.25637608766555786,0.01909090019762516,0.21162156760692596,-0.26104646921157837,-0.14331312477588654,-0.04104810208082199,-0.10892714560031891,0.03748611733317375,0.048424966633319855,-0.2954467236995697,-0.03827541694045067,0.129834845662117,-0.24146808683872223,-0.12553934752941132,-0.12609036266803741,-0.0337371826171875,0.025316549465060234,0.22579887509346008,0.008526943624019623,-0.10327234864234924,-0.17803359031677246,-0.049810927361249924,-0.17516520619392395,0.3062482476234436,-0.047688618302345276,0.013563530519604683,-0.05395789444446564,-0.20978258550167084,0.0919199138879776,-0.04663462936878204,-0.0688226968050003,0.002865450456738472,-0.13057276606559753,0.16354519128799438,0.08402198553085327,-0.027520639821887016,0.07071201503276825,-0.1270134299993515,-0.19407163560390472,-0.018834106624126434,-0.11432309448719025,0.10402332991361618,0.08272604644298553,0.11182095110416412,-0.10588080435991287,-0.1705126315355301,0.0983576849102974,0.2598296105861664,0.06616180390119553,-0.04688597097992897,-0.28002092242240906,-0.23484763503074646,0.25124847888946533,0.01927524246275425,0.1045461967587471,0.032977961003780365,-0.08456195890903473,-0.11564238369464874,-0.04187672212719917,-0.10340260714292526,-0.11408167332410812,-0.1514483243227005,-0.05937381088733673,-0.3114966154098511,-0.01614350639283657,0.1723448485136032,-0.184321328997612,-0.14566101133823395,0.02368415705859661,0.016315370798110962,-0.07534690946340561,0.06468205153942108,-0.25116175413131714,0.03700285404920578,-0.008037752471864223,0.02744939923286438,0.1599491834640503,0.24772097170352936,0.2516036927700043,0.3149557113647461,-0.10231047123670578,-0.0887049064040184,0.06124112755060196,-0.2910342812538147,-0.09655068069696426,0.09184917062520981,0.1168515533208847,0.13181129097938538,0.0468132421374321,-0.12982045114040375,-0.022754279896616936,-0.08360619097948074,0.07301546633243561,0.04533222317695618,0.19792743027210236,0.003185690613463521,0.04719433933496475,-0.058762144297361374,0.14933308959007263,0.10011795908212662,-0.08977822959423065,0.07632777094841003,0.23320238292217255,-0.19046194851398468,-0.18684007227420807,0.038127411156892776,-0.09473312646150589,-0.025621693581342697,0.04645037278532982,-0.027388092130422592,0.029172496870160103,0.17876902222633362,-0.05366865545511246,0.17521217465400696,0.12120001763105392,0.33776065707206726,0.10393452644348145,0.1982288807630539,0.024035807698965073,0.01377846673130989,0.11962290853261948,-0.09515473246574402,-0.07590220868587494,-0.06710278242826462,0.057486191391944885,-0.0030937399715185165,0.1290971040725708,0.01651826873421669,0.06391680240631104,0.076514333486557,0.07544092833995819,0.12362779676914215,-0.16282828152179718,-0.1071193516254425,0.06911389529705048,-0.03735717386007309,0.07920573651790619,-0.025004368275403976,0.06211550906300545,-0.05370040982961655,-0.15286459028720856,-0.1637229025363922,-0.20807522535324097,-0.06622342765331268,-0.00978324469178915,0.0779634639620781,0.1286313533782959,-0.20657455921173096,-0.28260713815689087,0.14992734789848328,0.2119491547346115,0.10353200882673264,0.1625310331583023,0.035677261650562286,0.006792427506297827,0.1453699916601181,-0.07507674396038055,0.14431434869766235,-0.023083606734871864,0.062451060861349106,-0.029850739985704422,0.20471607148647308,0.11161170154809952,-0.22045937180519104,0.03993035852909088,0.11142511665821075,0.2175094038248062,0.2275392711162567,-0.07046094536781311,-0.16350805759429932,-0.13675127923488617,-0.042170796543359756,0.1469404101371765,-0.051891062408685684,0.12282800674438477,0.03717115521430969,-0.02989405021071434,-0.0542481355369091,0.1498563438653946,0.054932400584220886,-0.011754213832318783,0.019063808023929596,0.1018960103392601,0.08543862402439117,0.21851962804794312,-0.051951318979263306,-0.3231295347213745,0.07687785476446152,-0.053833309561014175,0.15317441523075104,-0.06524943560361862,0.06678535044193268,-0.013638877309858799,0.26066598296165466,0.0027910417411476374,0.26157882809638977,-0.18930278718471527,-0.026880363002419472,0.1576647311449051,0.1639653891324997,0.35766440629959106,0.3454793095588684,-0.05357393994927406,0.387823224067688,0.16357268393039703,0.07271113991737366,0.19021247327327728,0.3013933002948761,-0.318373441696167,-0.29831662774086,0.10181950777769089,0.004390392452478409,-0.03591354563832283,-0.2674911916255951,0.04241704195737839,0.008113902062177658,0.06311271339654922,-0.04795023426413536,-0.19877122342586517,-0.04807373881340027,0.08517268300056458,0.022501492872834206,0.12041601538658142,-0.05139847844839096,-0.0974741205573082,0.23747573792934418,0.015382855199277401,-0.11103890836238861,-0.03212280943989754,0.021242521703243256,0.04454347863793373,0.19639840722084045,-0.17710135877132416,0.1460694670677185,-0.12233477085828781,-0.2701875865459442,-0.15259763598442078,-0.1519027054309845,-0.03540773317217827,0.01645492948591709,-0.04835757985711098,-0.14666204154491425,0.22452610731124878,-0.11793440580368042,-0.04529070481657982,0.06383504718542099,0.14614391326904297,0.06927893310785294,-0.02547241374850273,0.22777897119522095,0.09406311064958572,-0.15579017996788025,0.06734134256839752,0.11560551077127457,0.1311185359954834,0.17721082270145416,0.07941139489412308,0.025523187592625618,0.053090937435626984,-0.05965900421142578,-0.016863493248820305,0.13560111820697784,0.09429628401994705,0.0818670466542244,0.06724970042705536,-0.3799557387828827,-0.13422349095344543,0.04251006990671158,-0.058584269136190414,0.061080727726221085,0.038914959877729416,-0.043264370411634445,0.08525693416595459,0.15985028445720673,-0.15036113560199738,-0.17131374776363373,0.16034667193889618,-0.1699821650981903,0.06552454829216003,-0.020171472802758217,-0.0061554922722280025,0.07010052353143692,-0.026314502581954002,0.06738598644733429,-0.022418292239308357,-0.028347816318273544,-0.2825063467025757,-0.15572573244571686,-0.09128905832767487,-0.10480155795812607,0.048759184777736664,0.0923318937420845,-0.03182264789938927,0.023407205939292908,0.26237863302230835,-0.16073152422904968,0.03202403336763382,0.03914646804332733,0.0965278297662735,-0.28050026297569275,-0.11268050223588943,0.0711415484547615,-0.13457250595092773,0.1223849207162857,-0.06224284693598747,0.18686877191066742,0.12876573204994202,-0.19211401045322418,-0.04197464510798454,-0.05617087706923485,-0.012135452590882778,-0.12658502161502838,0.03896605223417282,0.3613404333591461,-0.17252199351787567,-0.21260519325733185,0.22071970999240875,0.060302019119262695,-0.27431854605674744,0.14060549437999725,-0.10469330847263336,-0.13723045587539673,0.08248791843652725,-0.3080996870994568,0.09346531331539154,0.007283960469067097,0.1778677999973297,0.10151302814483643,0.14829809963703156,-0.02372707985341549,0.2154208868741989,-0.13631804287433624,0.015905052423477173,-0.08359933644533157,-0.1184656023979187,-0.09216193854808807,-0.08062827587127686,-0.06304004043340683,-0.13616777956485748,0.005719442386180162,-0.11902202665805817,-0.008875270374119282,0.044025857001543045,-0.2270904779434204,-0.012914464809000492,-0.24427181482315063,0.21132753789424896,-0.0930836945772171,-0.2149009257555008,-0.11547459661960602,-0.22500911355018616,0.048946697264909744,-0.009727831929922104,0.05055362731218338,0.08944778144359589,0.07203026860952377,-0.12665946781635284,0.04336806759238243,-0.05600779876112938,-0.04824370518326759,-0.03206529840826988,-0.13905008137226105,0.21402674913406372,-0.2506590485572815,-0.12357933074235916,0.07156969606876373,0.09495703130960464,-0.08084714412689209,0.02273370325565338,0.1687677949666977,-0.2395944595336914,-0.16243109107017517,0.1627580225467682,-0.026254717260599136,0.05683040991425514,-0.10448498278856277,-0.035699643194675446,0.21583202481269836,-0.11702001094818115,0.1573963165283203,-0.11677248775959015,-0.0009484026231803,0.17383964359760284,0.10035881400108337,-0.10256882756948471,-0.08401535451412201,0.09174080938100815,0.05042669177055359,0.14273518323898315,0.08033965528011322,0.08350589126348495,-0.027235807850956917,-0.015370819717645645,0.10664837807416916,0.10802236944437027,0.20225517451763153,0.10648240894079208,0.2976802587509155,-0.08164574950933456,-0.08770254999399185,0.15293218195438385,-0.022466517984867096,0.09659843146800995,-0.09847073256969452,-0.06783434003591537,0.07834453135728836,-0.06016220897436142,-0.05054294317960739,0.0496881827712059,0.040047936141490936,-0.09205620735883713,-0.15693596005439758,-0.14487482607364655,-0.01965930685400963,0.16924071311950684,0.24161769449710846,0.1916104406118393,0.08823109418153763,0.06722572445869446,-0.2863525152206421,-0.08716674894094467,0.03519254922866821,0.09827151149511337,-0.17706270515918732
B,0.1690157800912857,0.08379850536584854,-0.029324570670723915,0.16817042231559753,0.02342594787478447,-0.06935514509677887,0.09006141126155853,0.22607837617397308,0.03560411557555199,-0.0523068867623806,0.23598121106624603,-0.05208096653223038,0.31405332684516907,0.039946600794792175,0.04400595277547836,-0.07116992771625519,-0.3407667577266693,0.1632181704044342,0.11923465877771378,0.24698516726493835,0.06747624278068542,-0.12807781994342804,0.11628394573926926,0.0064268652349710464,0.12961624562740326,0.010397689417004585,-0.11854051798582077,-0.2212636023759842,-0.06672201305627823,-0.07342927157878876,-0.11696198582649231,-0.0031406499911099672,-0.11088770627975464,-0.044675324112176895,-0.03629156947135925,-0.03904537484049797,0.04282860457897186,0.028003977611660957,-0.0909818634390831,0.19089683890342712,-0.12874867022037506,0.07163649052381516,0.24018751084804535,-0.003140800865367055,0.0235891155898571,0.14360927045345306,-0.09605532139539719,0.11227728426456451,-0.13783912360668182,-0.056968748569488525,-0.008148402906954288,0.255373477935791,-0.3188226521015167,0.10463778674602509,0.008322254754602909,-0.16875946521759033,0.25588345527648926,0.06044669449329376,0.13209055364131927,0.13034933805465698,-0.10174773633480072,-0.15264339745044708,-0.06607665121555328,0.08883482962846756,-0.1091877669095993,0.012456109747290611,0.04461346194148064,-0.006700399797409773,0.20360179245471954,-0.11532623320817947,-0.05178651958703995,0.028664153069257736,0.14291372895240784,-0.12684543430805206,-0.06086253002285957,0.06489678472280502,0.240257129073143,-0.03907347843050957,-0.00323567190207541,0.05142444372177124,0.017426149919629097,0.09984072297811508,-0.0009428384946659207,-0.057492878288030624,-0.13151554763317108,-0.14130625128746033,0.10198018699884415,0.0798095241189003,-0.1568625271320343,-0.03913610801100731,0.2850678265094757,-0.2869243025779724,-0.07580868154764175,0.12354043871164322,-0.13638508319854736,0.06592486053705215,0.17424114048480988,0.05877944454550743,0.170395627617836,-0.21391133964061737,0.018488915637135506,0.1578538715839386,0.12308771163225174,-0.05878154933452606,-0.07534314692020416,0.10787756741046906,0.025140542536973953,-0.018283452838659286,-0.1419820636510849,0.0962974801659584,-0.14454789459705353,0.05176789313554764,-0.17056623101234436,-0.13632768392562866,0.18151132762432098,-0.03621901199221611,-0.11149368435144424,0.024084679782390594,0.04692864045500755,-0.15818649530410767,0.14725683629512787,-0.21962043642997742,-0.09061688184738159,-0.08044179528951645,0.027255110442638397,-0.14906322956085205,0.021507002413272858,-0.07705702632665634,-0.046317264437675476,0.15977835655212402,-0.05991600081324577,-0.14427819848060608,0.13479965925216675,-0.14110927283763885,-0.058664899319410324,0.11969064176082611,0.10184313356876373,0.03789844736456871,-0.11659402400255203,-0.05988163873553276,0.14708176255226135,0.16621342301368713,0.005475375335663557,-0.2429603487253189,-0.29232028126716614,0.07444672286510468,0.04096214845776558,0.10160475969314575,-0.19063040614128113,-0.17349939048290253,0.17168696224689484,-0.10786306113004684,-0.09503837674856186,0.0794120505452156,-0.18033400177955627,0.019826604053378105,0.1383386105298996,-0.27913641929626465,-0.05422619730234146,-0.023979799821972847,-0.04921005666255951,-0.11801611632108688,-0.1621146947145462,-0.10286226868629456,0.026350587606430054,0.17780235409736633,0.28122666478157043,0.2621382772922516,-0.07724878191947937,0.13973630964756012,0.13994114100933075,-0.15391239523887634,0.016653457656502724,0.0952211394906044,-0.03111017495393753,-0.025445036590099335,0.05234232172369957,0.026328381150960922,-0.12858274579048157,-0.004722944460809231,0.10420218855142593,-0.05391263961791992,-0.06474228203296661,-0.09745525568723679,-0.11533581465482712,-0.189976766705513,0.25643104314804077,-0.14039312303066254,0.07874761521816254,0.06875263154506683,-0.08911418169736862,-0.22046639025211334,-0.19811470806598663,0.25451499223709106,-0.06811607629060745,0.020039286464452744,-0.04250742495059967,-0.14164963364601135,-0.08609508723020554,-0.1198948472738266,-0.13559339940547943,0.11364024877548218,-0.12552154064178467,0.06359448283910751,0.20966409146785736,-0.12413760274648666,-0.1964203417301178,-0.04855399951338768,0.21315966546535492,-0.09189485758543015,-0.06488551199436188,-0.1219647005200386,-0.07662401348352432,-0.040655579417943954,-0.10465316474437714,5.670484824804589e-05,0.09909625351428986,0.013925430364906788,0.1030595451593399,-0.0054944781586527824,-0.07474357634782791,-0.18039152026176453,0.376169890165329,-0.08805520832538605,0.020442508161067963,-0.10050057619810104,0.07864957302808762,0.044685643166303635,-0.32239750027656555,-0.04922238737344742,0.12540017068386078,0.14068838953971863,0.03944149613380432,0.12889494001865387,0.11952903121709824,-0.2694917321205139,-0.0680602565407753,-0.13112084567546844,0.01588493026793003,-0.06014801561832428,0.15956522524356842,0.04964215308427811,-0.1776651293039322,0.22670158743858337,-0.004651556722819805,-0.007095315959304571,-0.006334489211440086,0.16454176604747772,-0.07918772846460342,0.13496887683868408,0.09715745598077774,0.13132381439208984,-0.006661243736743927,0.00807915534824133,0.052718374878168106,0.10307923704385757,-0.19934196770191193,0.020810583606362343,-0.26157617568969727,-0.1969858705997467,0.04933527112007141,0.0026843214873224497,0.05242544785141945,-0.053947385400533676,0.002248644595965743,0.04824259877204895,0.11932497471570969,-0.10622122138738632,-0.04608136788010597,0.005675591994076967,0.11336148530244827,0.0768948569893837,-0.057677384465932846,0.07342646270990372,0.08419183641672134,0.01301486138254404,-0.26247185468673706,0.17045769095420837,-0.005150703713297844,0.14629757404327393,-0.11634811758995056,0.04557396098971367,0.14252017438411713,0.2348693460226059,-0.036309223622083664,-0.10710084438323975,0.11578091233968735,0.15414634346961975,-0.10405759513378143,-0.10477147251367569,0.03596794977784157,-0.09274233132600784,-0.02450288087129593,0.13534507155418396,-0.09309956431388855,0.2778567373752594,-0.32067856192588806,-0.1176988035440445,0.09955233335494995,-0.01833745278418064,0.0240375567227602,-0.08088620752096176,0.1896677017211914,0.2792951762676239,-0.042326416820287704,-0.015391130931675434,0.043476250022649765,-0.11467082798480988,0.021297892555594444,0.18464012444019318,-0.0065730419009923935,-0.09204240143299103,0.02150529809296131,0.4141404628753662,-0.12345011532306671,0.01372070237994194,-0.1002110093832016,-0.005115715321153402,0.007440702524036169,0.13974948227405548,-0.1040097251534462,0.08108113706111908,-0.16002127528190613,-0.17163072526454926,-0.2341046929359436,-0.0330401249229908,0.07223597168922424,-0.11257647722959518,0.21428567171096802,-0.052989959716796875,0.06980115920305252,-0.31769800186157227,0.029459087178111076,-0.11680616438388824,-0.015754396095871925,-0.18686509132385254,-0.0645069107413292,0.18893013894557953,0.13918885588645935,0.0005870665772818029,-0.05624415725469589,-0.19270507991313934,0.21201524138450623,0.047665804624557495,0.06815357506275177,0.1911678910255432,-0.25273892283439636,-0.2780294120311737,-0.09503041952848434,0.16012655198574066,-0.05183400958776474,0.21217842400074005,0.1044691875576973,-0.20521458983421326,-0.22094158828258514,-0.1260523498058319,0.1039915531873703,-0.06151202321052551,0.0054748873226344585,0.0298354122787714,0.06891880929470062,0.30813005566596985,-0.09759360551834106,-0.03354755789041519,-0.16364333033561707,-0.023202093318104744,-0.027406128123402596,0.11096171289682388,-0.09772290289402008,0.301800936460495,-0.08490896224975586,-0.2228802740573883,-0.0855736956000328,-0.09434901177883148,-0.07203827798366547,-0.148298978805542,0.04528074711561203,0.0001170066389022395,-0.06558079272508621,0.11106894910335541,0.02325647696852684,0.07094832509756088,-0.06065502017736435,-0.04077892750501633,-0.07424937933683395,0.15382318198680878,0.1322827935218811,-0.03810746595263481,-0.2676534354686737,0.04627278074622154,-0.20643243193626404,0.09103041887283325,-0.05095500871539116,-0.10950874537229538,-0.05960980802774429,-0.06756605207920074,0.15219958126544952,-0.12966488301753998,-0.16510815918445587,0.09378332644701004,-0.0722779780626297,0.16540256142616272,0.03558708354830742,0.023502273485064507,0.10298091918230057,0.04819030314683914,0.13369877636432648,0.04624900221824646,0.21132709085941315,0.004819316789507866,0.10267765074968338,0.06177743151783943,-0.0491911806166172,-0.17789679765701294,0.02597098797559738,-0.1528962254524231,0.08995339274406433,-0.11519923806190491,0.09434786438941956,-0.06848518550395966,0.20620472729206085,0.07635239511728287,-0.3294314444065094,-0.02968447469174862,0.0004148805164732039,-0.1581793576478958,0.04443658888339996,0.08096444606781006,-0.16720670461654663,0.1207713931798935,-0.0030809869058430195,-0.10496824979782104,0.17778079211711884,-0.2150319218635559,-0.21943777799606323,-0.01934342086315155,-0.12308790534734726,-0.3698002099990845,-0.22304177284240723,0.031386636197566986,-0.04053914546966553,-0.21661286056041718,-0.1615520715713501,0.20141935348510742,-0.06142009422183037,0.04129951074719429,-0.029994657263159752,-0.05625716596841812,-0.15561844408512115,-0.014356609433889389,0.17660373449325562,0.165989950299263,0.0659240111708641,-0.14417625963687897,0.12791520357131958,0.06697070598602295,-0.11823183298110962,0.18993622064590454,0.009966191835701466,-0.053083695471286774,0.1385570615530014,-0.3119564652442932,0.19174142181873322,0.03966086730360985,-0.008291803300380707,0.15262964367866516,0.245839461684227,-0.08538998663425446,-0.10791118443012238,0.031104115769267082,0.23046784102916718,0.07296232879161835,-0.16356757283210754,0.06841711699962616,0.06719353049993515,0.20120643079280853,-0.12679412961006165,0.06178819388151169,0.05318250134587288,0.09491469711065292,-0.01474909670650959,-0.09231040626764297,0.11322290450334549,0.018125923350453377,0.07234497368335724,0.22291527688503265,-0.03301617130637169,0.004710284527391195,0.008357388898730278,0.041322432458400726,-0.05121821537613869,-0.02978595159947872,-0.15880385041236877,0.0013332456583157182,-0.12053082883358002,-0.08453335613012314,-0.11371520906686783,0.0025586492847651243,-0.030054517090320587,0.09459110349416733,-0.11656248569488525,-0.12387548387050629,0.11519023030996323,0.1725148856639862,0.043932944536209106,0.10471358150243759,-0.05558762326836586,-0.09788063168525696,-0.08470066636800766,0.05847049131989479,-0.0871298760175705,-0.08449140191078186
C,0.12726759910583496,-0.19875042140483856,0.0306454636156559,0.0035172472707927227,-0.06222408264875412,0.06952542066574097,0.21774597465991974,-0.030618399381637573,-0.14095766842365265,-0.1224939227104187,-0.10736812651157379,-0.1362275928258896,-0.15679235756397247,0.017447376623749733,0.042460210621356964,-0.09776496887207031,-0.05806797370314598,-0.04808850958943367,0.06802909821271896,0.08181867003440857,-0.03916299715638161,-0.27184873819351196,0.03946974501013756,-0.1303066909313202,-0.11430952697992325,0.12720902264118195,0.13034208118915558,0.09595808386802673,-0.12014865130186081,-0.051457859575748444,-0.14717663824558258,0.12499171495437622,0.08856834471225739,0.09502100944519043,-0.12512488663196564,-0.03913061320781708,0.22456015646457672,0.025049101561307907,-0.06710894405841827,-0.09416642040014267,0.062478531152009964,0.0820901021361351,-0.049348458647727966,0.0843033492565155,-0.1975962072610855,0.09089363366365433,-0.10603611916303635,0.10494755953550339,-0.043342478573322296,-0.04677307605743408,-0.0508645698428154,0.3375541567802429,-0.01436105277389288,0.018558671697974205,0.010261920280754566,-0.2926541864871979,0.231086865067482,0.00040308968164026737,-0.061656225472688675,-0.17479391396045685,0.10284600406885147,-0.016057288274168968,0.1064024418592453,0.018757324665784836,-0.09312333911657333,0.006262962240725756,-0.1367732584476471,-0.11300227046012878,0.2070223093032837,0.13023464381694794,-0.1237860918045044,0.14799289405345917,-0.1153392419219017,-0.2974512577056885,0.01888567954301834,0.0053761727176606655,0.23589438199996948,0.2188146710395813,0.021700646728277206,-0.08693879842758179,-0.06207855045795441,0.12131437659263611,-0.12750215828418732,0.2292013019323349,0.01465275976806879,-0.17645171284675598,0.2102663367986679,0.15522216260433197,-0.2515456974506378,-0.06334663927555084,0.2217027097940445,-0.037024784833192825,-0.18495726585388184,-0.15466420352458954,0.031602248549461365,0.1681353598833084,0.06913812458515167,0.1024218201637268,-0.03716117888689041,-0.05276753008365631,-0.02038414403796196,-0.10036905109882355,0.04634183645248413,0.04454721137881279,0.029346084222197533,-0.06402245163917542,0.08152569830417633,-0.07828650623559952,0.10557568073272705,0.07042155414819717,0.038111381232738495,0.05461137741804123,-0.17355407774448395,0.02203565090894699,0.03407317399978638,0.06960248202085495,0.022444775328040123,-0.23785308003425598,-0.12517841160297394,-0.08499462902545929,0.16331176459789276,0.024919962510466576,0.08575201034545898,0.11022542417049408,0.27543139457702637,-0.029860470443964005,-0.07726315408945084,-0.10498100519180298,0.06607519090175629,0.19363699853420258,0.03425106406211853,-0.18952153623104095,-0.14857594668865204,-0.0018228505505248904,0.003027928527444601,-0.04237433150410652,-0.007535119540989399,0.008606841787695885,0.09558171033859253,-0.04777739569544792,-0.04975541681051254,0.18314823508262634,-0.13488726317882538,0.09672245383262634,-0.1910831183195114,-0.1344035118818283,-0.2540862262248993,0.12314432114362717,-0.1775558441877365,-0.10526079684495926,0.18966133892536163,-0.059891682118177414,0.18759052455425262,0.0524187833070755,-0.14680737257003784,-0.04805992171168327,-0.014136449433863163,-0.1653200387954712,0.008993742987513542,-0.04195256531238556,0.14412762224674225,-0.029600711539387703,-0.1294318288564682,-0.2156141847372055,0.050913795828819275,0.024133211001753807,0.32724201679229736,0.20798321068286896,-0.0031840885058045387,0.09845864027738571,-0.2304348200559616,0.09507276862859726,0.07369795441627502,-0.1181369498372078,0.027391141280531883,-0.03428599610924721,-0.060620926320552826,-0.01974170282483101,0.009309733286499977,0.03807609900832176,-0.0024124272167682648,-0.08605773746967316,0.056195806711912155,0.04017982259392738,-0.13853903114795685,0.07847591489553452,-0.061003729701042175,-0.13686953485012054,-0.006217439658939838,-0.07669396698474884,0.00013150791346561164,-0.3329885005950928,-0.08843541145324707,-0.07002243399620056,-0.24841547012329102,-0.21802379190921783,0.05710190534591675,-0.15599986910820007,-0.1417667418718338,0.3398285210132599,0.228962242603302,-0.14398570358753204,0.09442596137523651,0.08216205984354019,-0.022981328889727592,0.09056320041418076,-0.35423630475997925,0.06508751213550568,0.1707841455936432,-0.19307005405426025,-0.04887280613183975,-0.2332150638103485,-0.2720909118652344,0.18804451823234558,0.30690738558769226,0.04645299166440964,0.27941736578941345,-0.02373073808848858,0.007414280902594328,-0.018697775900363922,-0.12093015760183334,-0.09993360936641693,-0.10472328215837479,0.09128238260746002,-0.04777802899479866,0.09198155999183655,0.11745379865169525,0.030385028570890427,-0.01563325710594654,-0.044380445033311844,0.09548579901456833,0.11286886781454086,-0.11116550862789154,-0.12633095681667328,0.07471620291471481,0.04997565969824791,-0.2543545067310333,-0.06655001640319824,0.005951752420514822,-0.13024412095546722,0.10280037671327591,-0.06971219182014465,0.08731993287801743,0.3200532793998718,0.08397303521633148,-0.15846502780914307,0.07070855796337128,-0.0355340912938118,-0.14127708971500397,-0.049138858914375305,-0.0762520581483841,0.13394667208194733,0.029669886454939842,0.168925479054451,0.11905230581760406,0.24546143412590027,0.1162794753909111,0.09738605469465256,-0.17894239723682404,-0.14202824234962463,-0.08812970668077469,0.050243671983480453,0.016436094418168068,-0.11683323234319687,0.015006843023002148,-0.08039865642786026,0.08177686482667923,-0.062402669340372086,0.10573999583721161,0.07438855618238449,-0.02286139316856861,0.1221730038523674,-0.132910817861557,-0.0814882442355156,0.06870469450950623,-0.04668758437037468,-0.24935032427310944,0.22687464952468872,-0.08829337358474731,0.030864428728818893,-0.28470033407211304,0.004327965900301933,0.12081103771924973,-0.01028413511812687,-0.06734102219343185,-0.06815218925476074,0.13995200395584106,0.002044345485046506,-0.10261640697717667,-0.06080980226397514,-0.10046488046646118,-0.09789285808801651,0.08185181766748428,0.1390877068042755,-0.05681901052594185,-0.018121937289834023,-0.3245948255062103,0.01861744001507759,0.20254723727703094,-0.14707143604755402,-0.09055080264806747,0.022485116496682167,0.2566160559654236,0.028369611129164696,-0.15225596725940704,0.18689611554145813,0.3044028878211975,0.06695475429296494,-0.014590243808925152,-0.03236591815948486,-0.16597433388233185,-0.10679242014884949,0.09537550061941147,-0.04813029617071152,-0.21158136427402496,-0.0846087783575058,-0.27403801679611206,0.19426082074642181,0.009762621484696865,0.08849728107452393,0.0064553869888186455,0.07987616956233978,0.00252560805529356,-0.26171889901161194,-0.018874164670705795,-0.16266654431819916,0.09499175101518631,-0.27022165060043335,0.08551079034805298,0.09174680709838867,-0.07582535594701767,-0.014021065086126328,-0.13785488903522491,-0.15646415948867798,0.23321932554244995,-0.08365222811698914,0.2705284059047699,0.33304181694984436,0.01136768888682127,-0.22649343311786652,0.10088533908128738,-0.14424709975719452,0.3036331534385681,-0.21000578999519348,0.043103959411382675,0.13703617453575134,-0.09314590692520142,-0.22051915526390076,-0.11733431369066238,-0.07076657563447952,0.05585085228085518,-0.13725246489048004,-0.22808916866779327,-0.28785350918769836,-0.1027490422129631,-0.11849869042634964,-0.20090043544769287,0.06190330535173416,0.2807382643222809,0.21771053969860077,0.04622596502304077,0.1999402493238449,0.04523026943206787,-0.0713164284825325,-0.08740528672933578,-0.19714587926864624,0.16775818169116974,0.20868341624736786,-0.08175713568925858,0.16733747720718384,0.09045767039060593,0.020880475640296936,0.0726870745420456,-0.16646239161491394,-0.14614853262901306,-0.1135014146566391,-0.007748550735414028,0.12514856457710266,-0.06621064245700836,-0.036312926560640335,-0.05323024094104767,0.08103778213262558,0.2339063286781311,0.01633002795279026,-0.13483461737632751,0.1889621466398239,-0.05946030840277672,0.11298476159572601,0.0019479510374367237,-0.019567254930734634,-0.3732784390449524,0.16840673983097076,-0.07874227315187454,0.15209557116031647,-0.19924411177635193,0.10027167201042175,0.11850637942552567,-0.15403872728347778,-0.051878780126571655,0.06168597936630249,-0.09510719031095505,-0.05055641382932663,-0.02146691083908081,-0.08671365678310394,0.08883194625377655,0.032413728535175323,-0.06400531530380249,-0.05692282319068909,-0.1638517677783966,-0.018072286620736122,-0.11251150071620941,0.04828265681862831,0.26376116275787354,-0.013323361054062843,-0.023478496819734573,-0.042111799120903015,0.14550955593585968,0.0727202370762825,0.27031657099723816,-0.05399983748793602,0.15245260298252106,-0.1308365762233734,0.07396987080574036,-0.2268322855234146,-0.059915896505117416,-0.16605079174041748,0.0338263213634491,-0.1240919902920723,-0.21555569767951965,0.06382960081100464,-0.03546576946973801,-0.32700440287590027,-0.062209926545619965,-0.097151018679142,0.07565630972385406,0.028862280771136284,-0.1049124076962471,-0.19036588072776794,-0.16056258976459503,-0.3159347176551819,0.1333664357662201,0.038666725158691406,-0.13550974428653717,0.44586801528930664,-0.12259885668754578,-0.1204516589641571,-0.0002796066110022366,-0.24051545560359955,-0.24375204741954803,-0.16485585272312164,-0.027956616133451462,0.026890940964221954,0.07757618278265,0.15544962882995605,0.13803277909755707,0.1783883422613144,-0.13393980264663696,0.20868901908397675,0.4225301146507263,-0.04756738618016243,0.16230706870555878,-0.2324569970369339,0.10068463534116745,0.027904201298952103,-0.155229389667511,0.12097422033548355,-0.1342589408159256,0.08906881511211395,0.016852105036377907,-0.0892074853181839,-0.07738664001226425,0.09685885161161423,-0.29341280460357666,0.07162346690893173,0.03711634874343872,-0.1436069756746292,-0.2208056002855301,0.03673722222447395,-0.11624883115291595,-0.016060927882790565,-0.12976054847240448,-0.08704002946615219,-0.043960653245449066,0.19237934052944183,-0.11122281849384308,-0.05285336822271347,0.31863924860954285,-0.0030907022301107645,-0.01178715843707323,0.050814252346754074,0.07610058039426804,0.1531868278980255,-0.053148359060287476,0.03195729851722717,0.06081076338887215,-0.09066949039697647,-0.06731458753347397,0.21401895582675934,0.06582916527986526,0.11446405202150345,-0.24939119815826416,0.134549081325531,0.1894581913948059,0.31498757004737854,0.22447089850902557,-0.006449186708778143,0.2294614166021347,-0.418965220451355,-0.08054928481578827,-0.16774675250053406,0.13303904235363007,0.0901714414358139
N,0.2282024472951889,-0.10062568634748459,0.07798626273870468,0.02178175561130047,0.08479682356119156,-0.1240972951054573,0.27727630734443665,0.22950230538845062,0.03496372327208519,-0.28289857506752014,-0.031751491129398346,-0.16905008256435394,-0.06906994432210922,-0.06399577856063843,-0.28709274530410767,0.06873199343681335,-0.22033871710300446,-0.19522970914840698,0.15170247852802277,0.12186788767576218,-0.1112426295876503,0.17907051742076874,0.22090722620487213,-0.05269995331764221,0.11031610518693924,-0.3560533821582794,0.12372799217700958,0.09914887696504593,-0.07922385632991791,-0.05396951362490654,-0.003840292803943157,0.33440130949020386,0.003121462417766452,0.013449637219309807,-0.17086215317249298,-0.11793890595436096,0.10952248424291611,0.035275764763355255,-0.21540842950344086,-0.10370174050331116,-0.10275916010141373,0.1876845508813858,-0.06588787585496902,0.09592236578464508,0.17224258184432983,0.14602646231651306,-0.0458625890314579,0.10700546950101852,0.17357780039310455,-0.2166009396314621,-0.02577010542154312,-0.06308938562870026,-0.2557580769062042,0.30092576146125793,0.03843382000923157,-0.1836368441581726,0.33303529024124146,-0.06268852949142456,0.2121955007314682,-0.09079724550247192,-0.0021856820676475763,0.006360885687172413,-0.002787681994959712,0.0966688022017479,-0.08005771785974503,0.059347718954086304,-0.03727879747748375,-0.09943294525146484,0.329816073179245,-0.0214373916387558,-0.04116632789373398,0.06021242216229439,0.021671336144208908,-0.11047907173633575,-0.07120046764612198,0.12794606387615204,0.15015962719917297,-0.019232233986258507,-0.09096531569957733,0.06960709393024445,-0.04372474178671837,-0.00015207343676593155,-0.19787712395191193,0.13157162070274353,-0.030087055638432503,-0.035777851939201355,0.044528670608997345,0.08973899483680725,-0.10988378524780273,0.14388960599899292,-0.0778786689043045,-0.009570016525685787,-0.5126890540122986,-0.00832141563296318,0.07971198111772537,0.1127108708024025,0.19915619492530823,0.10524110496044159,-0.04574904218316078,-0.09443384408950806,-0.04255806654691696,0.22858910262584686,0.0983392521739006,-0.009734736755490303,0.13047045469284058,0.022186147049069405,0.0017884238623082638,-0.18821951746940613,-0.06547539681196213,0.08696778863668442,-0.07120737433433533,0.13935236632823944,0.011860731989145279,-0.04987763613462448,0.0970299243927002,-0.15838071703910828,-0.07082799077033997,0.08024326711893082,-0.04373808577656746,-0.08824057877063751,0.2733646333217621,-0.0020383421797305346,-0.07638122141361237,-0.15697889029979706,0.3071216344833374,0.031195254996418953,-0.054334286600351334,-0.14757663011550903,0.08247441053390503,-0.1112765371799469,0.027849366888403893,-0.22601699829101562,-0.024379199370741844,-0.2376880943775177,-0.0784054547548294,-0.0626169741153717,0.20121514797210693,0.07839427143335342,-0.11183514446020126,-0.1517532616853714,-0.08323083072900772,0.13669967651367188,-0.0703359842300415,0.0040196869522333145,0.1303854137659073,-0.3120017945766449,0.12233957648277283,-0.16240349411964417,-0.16982896625995636,0.002594091696664691,-0.18180587887763977,-0.176898792386055,-0.003429256146773696,-0.005992191843688488,0.05512057989835739,0.08873850107192993,0.04575479030609131,-0.2234431356191635,-0.10467180609703064,0.1003412976861,-0.05004257708787918,-0.14177468419075012,-0.006272475700825453,-0.19757020473480225,-0.002861922373995185,0.041676849126815796,-0.07220794260501862,0.02392270788550377,-0.16063371300697327,0.11195524781942368,-0.08617245405912399,-0.06084612384438515,-0.09442320466041565,-0.05320478230714798,0.05207163840532303,0.052228499203920364,0.09941916167736053,-0.1632264256477356,0.19502563774585724,-0.04013245180249214,-0.060955312103033066,0.050818659365177155,0.040522705763578415,0.07439778000116348,0.05868351459503174,0.031067170202732086,0.08813805133104324,-0.1503935158252716,0.17995555698871613,0.09679493308067322,-0.22637714445590973,-0.16741721332073212,-0.08079187572002411,-0.04744886979460716,0.12711505591869354,-0.04670311138033867,-0.009379137307405472,0.11040443181991577,0.12381234765052795,0.024176262319087982,0.3453938663005829,-0.05695391446352005,-0.1463356763124466,0.12242002040147781,0.1619173288345337,0.15473714470863342,-0.23347342014312744,0.058420758694410324,0.104498952627182,-0.19334949553012848,-0.050364479422569275,-0.09104198217391968,-0.04269421100616455,0.060718834400177,0.15844056010246277,0.06114402040839195,0.0994802862405777,0.16066713631153107,0.022081580013036728,-0.138614684343338,0.06340891122817993,-0.07292564958333969,-0.12669336795806885,-0.11756927520036697,-0.06520871073007584,0.0033920155838131905,-0.016175197437405586,0.37408536672592163,-0.10614375025033951,-0.257257878780365,-0.03775252774357796,0.11944052577018738,0.17435821890830994,-0.15551318228244781,0.0924156978726387,0.0777033343911171,0.08458966016769409,0.10266417264938354,0.019198624417185783,-0.1328469216823578,-0.07578763365745544,0.05909469723701477,0.04772297292947769,0.061287861317396164,0.09560434520244598,-0.08932074159383774,0.11698668450117111,0.25827714800834656,0.12078854441642761,-0.019245099276304245,-0.09050499647855759,0.11236052215099335,-0.01840507797896862,-0.13868388533592224,0.03875254839658737,0.12461231648921967,0.03888692706823349,-0.15597324073314667,-0.23829028010368347,-0.14764441549777985,0.009410819970071316,0.11581604182720184,0.23539400100708008,-0.17051000893115997,0.02609892189502716,-0.03392082825303078,0.09170980751514435,0.08924297988414764,0.20005713403224945,0.18111620843410492,-0.2328980267047882,0.00410811323672533,-0.2410481721162796,-0.20332151651382446,0.08182486146688461,-0.006752266548573971,-0.39251476526260376,0.27728843688964844,0.18644630908966064,0.1425187587738037,-0.10413803905248642,0.080832839012146,0.14244185388088226,-0.05344753339886665,0.1380739063024521,-0.044716402888298035,0.05531802028417587,-0.11427526921033859,-0.10348504781723022,-0.04424690455198288,-0.09619376063346863,-0.06867808848619461,0.002995512681081891,0.2874930799007416,0.08218023180961609,0.02683078683912754,-0.32147568464279175,0.03365340456366539,-0.1188708245754242,-0.048532191663980484,-0.020137645304203033,-0.20414897799491882,0.2737754285335541,-0.058179087936878204,-0.1780603975057602,0.298658549785614,0.07631843537092209,-0.10929496586322784,-0.11421410739421844,-0.1032729297876358,0.12484238296747208,-0.11007208377122879,0.2030038684606552,0.16313517093658447,0.035611897706985474,-0.18799421191215515,-0.05831585451960564,-0.04685010761022568,0.05474657192826271,-0.09876343607902527,-0.11931215971708298,-0.07289943844079971,0.19686603546142578,-0.26505041122436523,-0.13280454277992249,-0.4039641320705414,-0.16870129108428955,0.07117822766304016,0.29634350538253784,0.09575081616640091,-0.17677563428878784,0.05963850021362305,-0.06345628947019577,-0.1409125030040741,-0.01174499373883009,-0.1309988796710968,0.16214637458324432,-0.03791626915335655,0.29135480523109436,-0.14362289011478424,-0.15405863523483276,-0.0507422611117363,0.00039751562871970236,-0.2295953631401062,-0.15494398772716522,-0.009094709530472755,-0.424422025680542,-0.21731221675872803,-0.06779546290636063,-0.1637868881225586,-0.2137964516878128,-0.10829940438270569,0.0692746564745903,0.03803189843893051,-0.06115654483437538,-0.15035179257392883,-0.040760625153779984,0.015177405439317226,0.17625078558921814,-0.15634799003601074,0.02731800451874733,0.16338296234607697,0.06589998304843903,-0.006636562757194042,-0.15310867130756378,-0.286311537027359,-0.08914013206958771,0.1673496663570404,-0.14053161442279816,0.0760921761393547,-0.11470823734998703,-0.02435425855219364,-0.12688276171684265,-0.07841306924819946,0.07600131630897522,-0.0006683674291707575,0.10532647371292114,0.06291881203651428,0.0028881661128252745,-0.02849377691745758,-0.01559116318821907,-0.03236787021160126,0.1261691451072693,0.0193004347383976,0.007780116982758045,-0.013148532249033451,0.0022621555253863335,0.11871719360351562,-0.2394101768732071,-0.2141350954771042,-0.361350417137146,0.25347399711608887,0.16088519990444183,0.06342848390340805,-0.07197444140911102,0.09953424334526062,0.21721616387367249,-0.07168453931808472,0.27640941739082336,0.15199434757232666,-0.011151597835123539,0.11930619925260544,-0.06090940162539482,-0.13454806804656982,-0.0431830920279026,0.028307823464274406,-0.054205529391765594,0.05071344971656799,-0.08284682780504227,-0.03939471393823624,-0.05428370460867882,0.02482716739177704,0.009891187772154808,-0.14637549221515656,0.1507764756679535,-0.04368549585342407,-0.08651702105998993,0.11325156688690186,0.23479264974594116,0.010356009937822819,-0.07583034783601761,-0.1655934751033783,0.0890660509467125,-0.0733889564871788,0.19229795038700104,0.11240751296281815,-0.02001606486737728,0.033518753945827484,0.1530551165342331,0.23054656386375427,0.034378718584775925,-0.11905814707279205,0.051728878170251846,-0.2865883708000183,-0.04520797356963158,0.12057890743017197,0.0524386391043663,-0.33768323063850403,0.22773556411266327,0.1145191341638565,-0.04996790364384651,-0.10118842124938965,-0.16764196753501892,0.22969065606594086,0.12619274854660034,0.051659516990184784,0.07435616105794907,-0.0348002091050148,-0.02909732237458229,0.05618147552013397,-0.30409789085388184,0.01083534024655819,0.002817119937390089,-0.10538088530302048,0.09441518038511276,-0.333588182926178,-0.36760202050209045,0.11826831847429276,0.027230245992541313,-0.10454262048006058,0.10473404079675674,-0.07272092998027802,0.120169997215271,0.03691177815198898,0.04448172450065613,-0.07271590828895569,-0.09502233564853668,0.09014511108398438,-0.2762537896633148,-0.06657593697309494,-0.17246845364570618,-0.07708639651536942,-0.20875540375709534,0.13483063876628876,0.03697788715362549,-0.09109305590391159,-0.3730299174785614,0.034645408391952515,-0.1952335685491562,-0.02683517336845398,-0.03868640959262848,-0.10732652992010117,-0.0752817690372467,0.1901509314775467,-0.15640488266944885,-0.1617128849029541,0.03301594778895378,-0.03831081464886665,0.16347472369670868,0.02409002184867859,-0.14643573760986328,0.0003437275008764118,-0.23970705270767212,-0.021973509341478348,0.07766848057508469,-0.08606166392564774,-0.07055019587278366,0.22610291838645935,-0.045853324234485626,0.07872134447097778,-0.3040677607059479,0.053534381091594696,-0.1567928045988083,0.11308576911687851,0.01330797653645277,-0.15838868916034698,-0.00745364697650075,-0.26404520869255066,-0.08814307302236557,0.01621304452419281,0.22110898792743683,0.03424198552966118
O,0.21739254891872406,-0.13378047943115234,0.16827768087387085,-0.03231222555041313,0.16869617998600006,-0.06502307951450348,0.3534908592700958,-0.13398845493793488,-0.15170371532440186,-0.0791771411895752,0.1953509896993637,-0.061166051775217056,0.10546097159385681,0.05787321925163269,0.030844656750559807,0.05022972822189331,-0.08145570755004883,-0.11544343829154968,-0.006294723134487867,-0.10167545080184937,-0.04243222996592522,0.0018338934751227498,-0.03022105060517788,0.08429256826639175,0.053852666169404984,0.13463157415390015,0.15505510568618774,0.09475500881671906,-0.09563497453927994,0.0650789812207222,-0.1494995355606079,0.1422322690486908,-0.04594971239566803,0.06990327686071396,-0.10606514662504196,-0.17718040943145752,-0.03489791601896286,-0.05888398736715317,-0.1925489455461502,-0.027786480262875557,-0.04621748626232147,-0.09333036094903946,-0.06499095261096954,0.010269653983414173,-0.017351245507597923,0.009377861395478249,-0.02491338737308979,0.1170474961400032,0.27095168828964233,-0.08357250690460205,0.0054130894131958485,0.13929761946201324,-0.21145275235176086,-0.020662682130932808,-0.005990785546600819,0.05288580432534218,0.3467860817909241,0.029143162071704865,0.10685301572084427,-0.09755413979291916,0.08002326637506485,-0.08895965665578842,0.03957144543528557,0.1440066248178482,-0.04778732359409332,0.014901747927069664,0.0904826819896698,-0.05051927641034126,0.1561623513698578,0.10992595553398132,-0.09426292777061462,-0.0024169241078197956,0.11414056271314621,0.10312673449516296,-0.06519389897584915,0.050709426403045654,0.012988965027034283,-0.08537667989730835,0.0110758813098073,0.15204085409641266,0.1458936184644699,0.08371473103761673,-0.08237936347723007,0.013148601166903973,-0.08040325343608856,0.12170117348432541,0.0638064369559288,0.09387315809726715,0.06405144184827805,0.10242590308189392,-0.09501256048679352,0.039519041776657104,-0.038221582770347595,0.20719417929649353,-0.08600438386201859,-0.05106373876333237,0.21284742653369904,0.02220230922102928,0.08567570894956589,-0.09974680095911026,-0.08170679956674576,0.1094365119934082,-0.10469146817922592,-0.14023475348949432,-0.22212910652160645,-0.2300688773393631,0.0805981233716011,-0.17668911814689636,-0.13355602324008942,0.04831153154373169,-0.06340356916189194,0.16881705820560455,0.005795806180685759,0.10064670443534851,-0.03271421790122986,-0.1944752335548401,-0.07101506739854813,0.02636883407831192,0.02094312012195587,0.15741558372974396,0.0013934964081272483,-0.15767446160316467,0.04044954478740692,-0.26365208625793457,0.042226679623126984,0.07703438401222229,0.10838400572538376,-0.09508601576089859,-0.11760575324296951,0.14481854438781738,-0.029793696478009224,0.17734934389591217,0.043770551681518555,-0.11360730230808258,0.15460331737995148,0.04054003581404686,0.05648138374090195,-0.11169528216123581,0.06859392672777176,-0.02517438307404518,-0.19161735475063324,0.04846065118908882,-0.08158836513757706,0.08681975305080414,0.12561991810798645,0.08904663473367691,-0.04709902033209801,0.10177195817232132,-0.040059447288513184,-0.07442496716976166,-0.13858367502689362,0.12165077775716782,0.008022145368158817,-0.16965502500534058,0.15118622779846191,0.004503302276134491,0.040645625442266464,-0.1516723930835724,0.1541808396577835,0.05877026543021202,-0.056604500859975815,-0.056491680443286896,-0.07117140293121338,0.07809198647737503,0.1931808441877365,0.2685622572898865,0.11828996986150742,-0.020496759563684464,0.02300177328288555,0.09315378218889236,-0.049266718327999115,0.10176366567611694,0.03981056064367294,-0.11212369054555893,-0.047561224550008774,-0.12323307245969772,-0.17151294648647308,0.04343755543231964,-0.08733633160591125,0.015682842582464218,-0.032075222581624985,0.022647151723504066,0.008882093243300915,-0.042648185044527054,-0.15794432163238525,0.10262609273195267,-0.047317154705524445,-0.15735450387001038,0.11094608902931213,0.08268765360116959,-0.2807842791080475,-0.26006001234054565,-0.1017986610531807,-0.03310833126306534,0.05795011296868324,0.04935328662395477,0.008063635788857937,0.19575774669647217,0.03274378925561905,0.02109513245522976,0.08145037293434143,-0.21340139210224152,-0.23626507818698883,0.19813938438892365,-0.0778757780790329,-0.09260578453540802,-0.016682740300893784,-0.01878601498901844,0.15805073082447052,0.01470909919589758,-0.04975270852446556,0.023684367537498474,0.0021989489905536175,0.056457966566085815,-0.02732965722680092,-0.10798060148954391,0.01962251216173172,-0.008492087945342064,-0.04185611382126808,-0.02259332500398159,0.1859980970621109,-0.16309669613838196,-0.0831306204199791,-0.14432378113269806,0.019863992929458618,0.26799148321151733,-0.2916974425315857,0.46840518712997437,-0.09510129690170288,0.016784250736236572,-0.06834835559129715,0.1779860258102417,0.05012432858347893,0.044078800827264786,-0.03147537633776665,0.10138315707445145,-0.061658017337322235,-0.06693819165229797,0.025723502039909363,-0.13946153223514557,-0.16373533010482788,0.08697492629289627,-0.04843531921505928,0.08048893511295319,0.07834051549434662,0.030205056071281433,0.08400934934616089,0.27100449800491333,0.08391716331243515,-0.13016855716705322,-0.11156675964593887,0.1560734063386917,-0.02179734595119953,-0.013184594921767712,0.09764843434095383,-0.01604112610220909,0.10051768273115158,-0.1473148763179779,0.07842876017093658,-0.1145327165722847,0.07745370268821716,0.060250841081142426,0.14463365077972412,-0.01114028412848711,-0.02833344042301178,-0.06958996504545212,0.14266811311244965,-0.11688487231731415,0.11432969570159912,0.015168832615017891,0.00941534899175167,0.12538336217403412,-0.11406821757555008,-0.1431184709072113,0.08709537982940674,0.010386551730334759,-0.17806562781333923,-0.11078102141618729,0.02272021397948265,-0.09223850071430206,-0.10865326225757599,0.08241436630487442,0.10195131599903107,0.1893415004014969,-0.060867756605148315,0.06167423352599144,0.03963496908545494,-0.12314406782388687,-0.11150050163269043,-0.1361682116985321,-0.053004104644060135,-0.13127607107162476,0.12660080194473267,0.12440995872020721,-0.049458879977464676,0.1801982969045639,-0.3221733272075653,0.10186360031366348,-0.08372779935598373,-0.14238259196281433,0.16257254779338837,-0.11413571238517761,0.21730518341064453,0.04001125693321228,0.007135976571589708,-0.05505465716123581,-0.12780268490314484,0.029547452926635742,-0.08109264075756073,-0.13114185631275177,0.18265704810619354,-0.0819830372929573,0.08158693462610245,0.1464201658964157,0.09539330005645752,-0.17625334858894348,-0.24659433960914612,0.09129307419061661,-0.03404958173632622,-0.10453980416059494,-0.12072337418794632,-0.03662889450788498,-0.11154278367757797,-0.04244209825992584,0.04833507165312767,0.065130814909935,0.11486557126045227,-0.10127700865268707,0.25166475772857666,-0.09735210239887238,-0.06023409590125084,0.06426095217466354,-0.026591507717967033,-0.11982488632202148,-0.133175328373909,-0.028069863095879555,0.33247068524360657,-0.07009000331163406,-0.06432347744703293,-0.1519126445055008,-0.05677558854222298,-0.10796297341585159,0.03348158672451973,0.04777578264474869,-0.04424269124865532,-0.0891902819275856,-0.00446834834292531,-0.07424484938383102,-0.059464409947395325,-0.013886853121221066,-0.19862280786037445,-0.028493734076619148,-0.020464153960347176,0.037297189235687256,-0.09794976562261581,-0.17494113743305206,0.026635795831680298,-0.005865413695573807,0.04405882954597473,0.03413674235343933,0.015623790211975574,-0.04773028939962387,-0.0824245810508728,0.05970638245344162,-0.03037102520465851,-0.0830957219004631,0.036640316247940063,0.16429582238197327,-0.09000155329704285,-0.0246531143784523,-0.06869930028915405,0.06031593680381775,0.008780159056186676,0.07753399759531021,-0.1092941090464592,0.1913374662399292,-0.010316507890820503,-0.12950603663921356,0.1810126155614853,-0.13768775761127472,-0.017335858196020126,0.004548044875264168,0.054905965924263,0.029468491673469543,-0.13260707259178162,0.22665543854236603,-0.004330506082624197,0.131588414311409,-0.1159939169883728,-0.22784341871738434,-0.09238964319229126,0.10528352856636047,0.0382007397711277,0.0055378153920173645,-0.103106290102005,-0.09738510847091675,0.11304278671741486,-0.011679627001285553,-0.04744233563542366,-0.1697087585926056,0.03858897089958191,0.1494286209344864,0.07948479801416397,-0.03449303284287453,0.2865348756313324,0.04098255932331085,-0.13231992721557617,0.03083920106291771,-0.10972825437784195,0.02341500297188759,0.0515732504427433,0.011298472993075848,0.08998578041791916,-0.020477240905165672,-0.006003557238727808,0.04156963899731636,-0.024232683703303337,0.10615552961826324,0.34231725335121155,0.05537017434835434,-0.0576261542737484,-0.1032807007431984,0.09825486689805984,-0.22194062173366547,0.007912715896964073,-0.11553222686052322,-0.2836221754550934,0.03315435349941254,0.1017770990729332,0.17352931201457977,-0.038131266832351685,-0.06464345008134842,0.05482293292880058,-0.20044013857841492,-0.1174049898982048,0.14919371902942657,0.013297352939844131,-0.07892708480358124,0.001921045477502048,-0.015374589711427689,0.033655449748039246,-0.12264398485422134,-0.1688549965620041,-0.0007581099052913487,0.046978481113910675,0.09158825129270554,-0.025066222995519638,-0.0002468836901243776,-0.038415681570768356,-0.1458059847354889,0.11754407733678818,0.03822856768965721,0.10133089125156403,-0.06636547297239304,0.021766891703009605,0.18992923200130463,-0.11777856200933456,-0.0973295345902443,-0.09867338091135025,-0.11211045831441879,0.20736892521381378,-0.0018935257103294134,0.05066041275858879,0.09875262528657913,-0.015566974878311157,-0.07468027621507645,-0.058532264083623886,0.04265259578824043,-0.06989440321922302,0.02003324218094349,-0.17635288834571838,0.09165307134389877,-0.021716546267271042,0.08359300345182419,0.0651249885559082,-0.11540636420249939,-0.028719041496515274,0.058126166462898254,-0.1101108267903328,-0.060250312089920044,-0.10794423520565033,-0.03975241258740425,0.017318138852715492,0.1779186725616455,-0.14829392731189728,0.1403786838054657,-0.10962113738059998,-0.07231003046035767,-0.10365919768810272,0.0075101908296346664,-0.141690194606781,0.06997475028038025,-0.09709527343511581,0.1044110432267189,0.25970563292503357,-0.0976966992020607,-0.06183905526995659,0.17718379199504852,0.1010703295469284,-0.01923581026494503,-0.15058505535125732,0.2392602413892746,0.12887002527713776,0.13466554880142212,0.10492434352636337,-0.030298996716737747,0.05580198019742966,-0.1419750154018402,-0.0876290574669838,-0.037233322858810425,0.08884577453136444,0.18166187405586243
F,0.039259642362594604,-0.19093582034111023,0.12530244886875153,-0.07333801686763763,-0.06643777340650558,0.17838267982006073,0.12219016253948212,0.10961440205574036,-0.04302265867590904,-0.09804850071668625,-0.09146269410848618,0.07922465354204178,-0.18192404508590698,-0.03633909672498703,-0.05558887869119644,-0.030298538506031036,-0.020679540932178497,-0.0031289635226130486,0.003339482005685568,-0.1710563451051712,0.14627674221992493,0.017122207209467888,0.10213098675012589,0.16663096845149994,0.09919537603855133,-0.06679283827543259,0.11476434767246246,0.09119550883769989,-0.02791438065469265,0.0833662822842598,-0.1233273521065712,-0.12574683129787445,-0.01230042427778244,0.001382289221510291,-0.044679198414087296,-0.048920582979917526,0.09846687316894531,-0.032753150910139084,0.1045428067445755,-0.06555239856243134,0.029993627220392227,-0.03412597253918648,0.053781721740961075,0.1032024621963501,0.03843342512845993,0.15377092361450195,-0.290469765663147,0.1095769926905632,0.30126941204071045,-0.32528841495513916,-0.0626048892736435,-0.0012509875232353806,-0.412204772233963,0.01956900581717491,0.032685089856386185,-0.3125731945037842,0.2635077238082886,-0.25206825137138367,-0.12335588037967682,-0.1567067801952362,0.022664804011583328,-0.017448129132390022,0.09601659327745438,0.22949619591236115,0.025247540324926376,-0.03635793924331665,0.16236655414104462,-0.12796702980995178,0.14772000908851624,-0.01713714748620987,0.05228116363286972,-0.05297815054655075,-0.12589037418365479,-0.0445784255862236,0.1827961951494217,0.18744392693042755,0.0013454770669341087,0.23866817355155945,0.1634681075811386,0.09599725157022476,-0.059555575251579285,0.033228594809770584,-0.032312922179698944,-0.07764565944671631,0.05887963995337486,0.05028381198644638,-0.16962774097919464,0.09992523491382599,-0.2113039493560791,0.06233079731464386,0.16844822466373444,0.0747072845697403,-0.36800456047058105,-0.1972305327653885,-0.2889922261238098,-0.06877050548791885,0.27857115864753723,0.1040189266204834,-0.06459817290306091,-0.16376172006130219,-0.029752328991889954,0.14461566507816315,0.023950904607772827,0.10392492264509201,-0.10764705389738083,-0.10246389359235764,0.07054281234741211,-0.19427017867565155,-0.19875766336917877,0.08141731470823288,-0.05851349979639053,-0.14434809982776642,-0.03086082637310028,0.0883902981877327,-0.2169167399406433,-0.08932939916849136,0.010180345736443996,-0.0017901561222970486,-0.006289092358201742,0.016076531261205673,0.02378418669104576,-0.4344055950641632,-0.047612763941287994,-0.30169105529785156,-0.12642665207386017,-0.07162830978631973,0.0629112720489502,-0.1817111074924469,-0.10491745173931122,0.17726844549179077,-0.17309561371803284,0.14186762273311615,0.02570377290248871,-0.14286816120147705,0.05927874520421028,0.08943632990121841,0.19838033616542816,-0.13877595961093903,-0.13650305569171906,-0.029133662581443787,0.054060135036706924,0.042553626000881195,0.02535441890358925,0.08428949862718582,-0.13515888154506683,-0.32573381066322327,-0.04101496934890747,0.12637552618980408,-0.15329600870609283,0.14514191448688507,-0.03829129785299301,-0.09271050244569778,0.09330474585294724,-0.19454021751880646,0.09356608241796494,0.10184905678033829,-0.060073379427194595,-0.13644322752952576,-0.17173856496810913,-0.3537205755710602,-0.16160762310028076,0.16149947047233582,-0.06683804839849472,0.024014078080654144,0.003050286788493395,0.37963080406188965,0.06695790588855743,0.036727678030729294,0.01037091389298439,0.06442982703447342,0.02835366316139698,0.1387251764535904,-0.09380855411291122,0.03598891198635101,-0.10246340185403824,-0.22114935517311096,0.028472818434238434,-0.06590201705694199,-0.015460245311260223,-0.1421641856431961,-0.05486160144209862,0.045415282249450684,-0.06076281890273094,0.07208003103733063,-0.11314753443002701,0.2388048619031906,0.06317766010761261,-0.09105915576219559,0.05716371908783913,0.03430778160691261,0.006013174075633287,-0.24224038422107697,-0.12465841323137283,-0.09804702550172806,0.11647453159093857,0.04730553179979324,0.11773838847875595,0.26968249678611755,0.21763044595718384,-0.11252325773239136,-0.02678755670785904,-0.26546475291252136,0.14404430985450745,0.019591469317674637,-0.29138830304145813,0.05757473036646843,0.0985211506485939,0.05366984382271767,0.02982553280889988,-0.13435809314250946,-0.042503539472818375,-0.10692472010850906,-0.03976019471883774,-0.1920301914215088,0.17886009812355042,-0.09796013683080673,0.0051655941642820835,-0.026560090482234955,0.03714678809046745,-0.05669405683875084,0.16300098598003387,-0.13053268194198608,0.028812648728489876,-0.1735565960407257,-0.07820388674736023,0.07610069960355759,0.02841527946293354,0.1538454294204712,-0.24068385362625122,0.04524505138397217,-0.014174675568938255,0.26581695675849915,-0.09248830378055573,-0.0911494791507721,0.23706310987472534,0.17785586416721344,0.17541837692260742,0.349195271730423,0.11535930633544922,0.03519769385457039,-0.18518786132335663,0.08290994167327881,-0.0884772539138794,0.149831622838974,0.0891077071428299,-0.08571209758520126,0.08050442487001419,0.24764804542064667,-0.040052153170108795,-0.1464575082063675,-0.21510453522205353,0.12461623549461365,0.06678818166255951,0.14152266085147858,0.09656885266304016,0.034711819142103195,1.1032203474314883e-05,0.06963872164487839,-0.10289350897073746,-0.17047065496444702,-0.1964874416589737,0.1034650206565857,0.21050037443637848,-0.15920081734657288,0.0438196025788784,-0.09653972834348679,0.08714768290519714,-0.026531269773840904,-0.08641890436410904,0.12887586653232574,0.1686747819185257,0.16609565913677216,-0.07286492735147476,0.0997283011674881,0.0751933678984642,0.07090925425291061,-0.43042388558387756,0.18731434643268585,-0.18823501467704773,-0.1422114372253418,-0.06305991113185883,0.02873372472822666,0.1423482596874237,0.2224280685186386,0.08588358014822006,0.02708607353270054,-0.11335813254117966,-0.06990501284599304,-0.10432276874780655,-0.07541190832853317,-0.10869504511356354,-0.04276185482740402,0.17035219073295593,0.12400984019041061,0.024843987077474594,0.14385268092155457,-0.321446031332016,0.0720166563987732,0.06834729760885239,-0.11446734517812729,0.2852836549282074,0.13169628381729126,0.04439787194132805,0.06325686722993851,-0.18155920505523682,0.03275206312537193,-0.11715010553598404,0.058772534132003784,-0.12194415926933289,0.15030179917812347,0.04031594470143318,-0.10880983620882034,0.01234600692987442,-0.16531331837177277,0.16879411041736603,0.0735892802476883,-0.1245516911149025,0.27074748277664185,0.04556591808795929,-0.18146292865276337,0.017665408551692963,0.014331585727632046,-0.0788533017039299,-0.010947272181510925,-0.29226866364479065,-0.1382797360420227,0.1510140299797058,-0.030807044357061386,0.20457203686237335,-0.16841939091682434,-0.18582375347614288,-0.030741646885871887,-0.2503563165664673,-0.2174195647239685,0.24531860649585724,0.21327492594718933,0.06534484773874283,0.09348180890083313,-0.04312817379832268,-0.10946515947580338,-0.12256065011024475,-0.006949434522539377,-0.05311848595738411,0.14780621230602264,-0.199954554438591,0.2670692205429077,-0.10766646265983582,-0.05234370008111,-0.18093115091323853,0.013519657775759697,-0.07379275560379028,0.1395650953054428,-0.11959018558263779,0.034404076635837555,0.006383495405316353,-0.21453449130058289,-0.2012936770915985,0.10256342589855194,-0.12541720271110535,0.12503841519355774,0.040056660771369934,-0.09359687566757202,-0.16731463372707367,-0.16863691806793213,-0.09450095146894455,-0.05067990720272064,-0.027367401868104935,-0.016371767967939377,-0.04815077409148216,-0.04520896077156067,-0.06630422919988632,0.07739894092082977,0.021365592256188393,-0.041016049683094025,0.12027745693922043,0.23516656458377838,0.01937713474035263,-0.04425031319260597,0.01833471842110157,0.10992760211229324,0.048189617693424225,0.27532994747161865,0.04001077637076378,0.11004481464624405,0.07806545495986938,-0.03525024279952049,-0.09064392000436783,0.12023578584194183,-0.1897083818912506,-0.3673112988471985,-0.3229541480541229,0.09965208917856216,0.047297656536102295,0.0016427648952230811,-0.12061122059822083,-0.28001758456230164,0.22727467119693756,-0.03214428573846817,0.14921940863132477,0.07553160935640335,-0.09120840579271317,0.185019850730896,0.09981320053339005,-0.09216949343681335,0.18564200401306152,0.026953205466270447,0.016838695853948593,0.06741560995578766,0.053782571107149124,-0.024037238210439682,0.025192230939865112,0.04117969423532486,0.2092789113521576,0.14744290709495544,0.08277476578950882,-0.2759269177913666,-0.3043619394302368,-0.051673974841833115,0.04027223214507103,-0.10967876017093658,0.11087566614151001,0.06545425951480865,0.08517355471849442,0.040591392666101456,-0.049638740718364716,0.05011669546365738,-0.2282334417104721,0.037262458354234695,-0.028179988265037537,0.1683795005083084,-0.08332296460866928,-0.031045736744999886,-0.27688440680503845,-0.1647127866744995,-0.015894928947091103,0.15589448809623718,0.0631817877292633,-0.1188589558005333,0.00657926918938756,-0.18071116507053375,-0.003435371909290552,-0.1511351317167282,-0.12536102533340454,0.2753143906593323,0.013654511421918869,0.17522206902503967,-0.0852622240781784,0.09683217108249664,0.08997758477926254,-0.09947814047336578,0.0385700985789299,-0.027758711948990822,-0.03461496904492378,0.05530750751495361,0.03694790229201317,0.04633577540516853,-0.2488216608762741,-0.1905318796634674,-0.06103018671274185,0.006085493136197329,0.23088328540325165,-0.24159806966781616,0.056373462080955505,0.07743065059185028,0.09797851741313934,-0.16951332986354828,-0.04719128459692001,-0.11325959861278534,-0.1271505057811737,-0.08986558020114899,-0.0547276996076107,-0.00469411164522171,-0.3243761360645294,-0.03884020075201988,0.032132264226675034,-0.2488764226436615,0.004532865714281797,0.030155068263411522,0.06631302833557129,0.22791515290737152,0.010535758920013905,-0.2114119678735733,-0.06811533868312836,0.13578908145427704,-0.14052452147006989,-0.08449343591928482,-0.014497264288365841,-0.09732465445995331,0.006319573614746332,-0.05464223399758339,0.004291989374905825,0.11355685442686081,0.012663785368204117,0.03912517800927162,0.402594655752182,-0.07270120084285736,-0.04182911291718483,-0.06680096685886383,0.15152369439601898,-0.1684078574180603,-0.13859625160694122,0.091342993080616,0.05187812075018883,-0.048830125480890274,0.04182244837284088,0.12076185643672943,0.2035280466079712,-0.35892629623413086,-0.08304543793201447,-0.10214421153068542,0.08736467361450195,0.09864360839128494
